{"dense1": {"weights": [[0.021321534105704438, 0.009364457258311159, -0.00035095176869670385, 0.01265077838088766, 0.0021149701273187804, -0.0070492135250744496, 0.006799748442451023, -0.006963266538610829, -0.002903971008038668, 0.01327782695957983, -0.0010128148621739936, -0.008031413873416283, -0.004643376914354917, 0.01021790585588673, -0.005525406734167292, -0.0038687084685064656, -0.005102927396336285, 0.0018392549434030994, -0.003854897603756083, -0.01601836048972537, -0.008871809418450402, -0.009327890415064382, 0.012433193844551549, 0.008126740421090423, 0.00587259379399826, -0.0050535831726441, -0.008157915419939713, -0.0050751760165735705, -0.01051880102551674, 0.02497200391587007, -0.022453216483714022, 0.005640085350738091, -0.012845522979925273, -0.0010434349149469264, -0.009880019424937344, -0.01177628962482631, -0.011401963009349616, 0.017549861537420587, -0.00132988422309592, -0.007657021944780863, 0.0055578696408287295, 0.00010349314566299353, 0.007200337593416528, -0.0182425665593783, 0.003036039044620014, 0.0077269483710238175, -0.016615982911145636, 0.004481952844233124, 0.016961815728281607, -0.00014857703354702716, 0.008214059370248113, 0.006705704503109099, -0.007075056975105769, 0.0003976673458649517, -0.015669947108616026, -0.004513030371025261, 0.002656879749662359, 0.007231004937377982, 0.0002461212524791162, 0.0071998373014316545, -0.011029062129553697, -0.001016972745548716, 0.00019279384513077216, 0.018495912466796365], [-0.0021416665620008425, -0.004990166379941829, 0.0002135122384354861, -0.009191134448699437, 0.0019275384906521618, -0.003650552165462577, -0.017913275480411838, -0.0005858655113386085, -0.0031754309393019924, -0.016324233020679833, -0.0006713415461452177, 0.014893559620744803, 0.005213037482757137, 0.006119271927311578, -0.013414967255830426, 0.0047689836892222245, 0.0014844958138007808, 0.0052904523833443165, 0.004226286217088256, -0.013597807255038136, -0.0004140081155796743, -0.007578708604251661, -0.000500840942848221, -0.008974009269018306, 0.013124703671409964, -0.008589723884443424, -0.00898942156465536, 0.0007458640654355353, -0.010770990694039948, -0.004246633024328657, -0.008299645975379619, 0.014111720638896118, 0.007858038268311726, -0.0005746951846539465, -0.003912170521740163, 0.009409176145751133, 0.004052040803228881, 0.004980524046828567, -0.00026192237344250483, -0.016882300277714323, -0.0011246598255955271, -0.005324899192090678, 0.006450552734598769, 0.01011842432994189, -0.006579510447611687, 0.0046838523427705165, 0.017358789976857133, -0.006677127205705589, 0.016819217400731376, -0.00852585847170647, 0.00022959755607951444, -0.00011145611841841251, 0.00011498899870062375, -0.008376780419079452, -0.005911831037644298, -0.006677202863593994, 0.0032696259540445738, 0.0033003511451031166, 0.02225944331738259, 0.013709890062911215, -0.005098432421384791, 0.0032486961579618607, 0.009971179807917596, 0.0003060182433851781]], "biases": [[0.0, 0.0, 0.0, 0.0, 0.0, 0.0, 0.0, 0.0, 0.0, 0.0, 0.0, 0.0, 0.0, 0.0, 0.0, 0.0, 0.0, 0.0, 0.0, 0.0, 0.0, 0.0, 0.0, 0.0, 0.0, 0.0, 0.0, 0.0, 0.0, 0.0, 0.0, 0.0, 0.0, 0.0, 0.0, 0.0, 0.0, 0.0, 0.0, 0.0, 0.0, 0.0, 0.0, 0.0, 0.0, 0.0, 0.0, 0.0, 0.0, 0.0, 0.0, 0.0, 0.0, 0.0, 0.0, 0.0, 0.0, 0.0, 0.0, 0.0, 0.0, 0.0, 0.0, 0.0]], "output": [[0.0, 0.0, 0.0, 0.0, 0.0, 0.0, 0.0, 0.0, 0.0, 0.0, 0.0, 0.0, 0.0, 0.0, 0.0, 0.0, 0.0, 0.0, 0.0, 0.0, 0.0, 0.0, 0.0, 0.0, 0.0, 0.0, 0.0, 0.0, 0.0, 0.0, 0.0, 0.0, 0.0, 0.0, 0.0, 0.0, 0.0, 0.0, 0.0, 0.0, 0.0, 0.0, 0.0, 0.0, 0.0, 0.0, 0.0, 0.0, 0.0, 0.0, 0.0, 0.0, 0.0, 0.0, 0.0, 0.0, 0.0, 0.0, 0.0, 0.0, 0.0, 0.0, 0.0, 0.0], [8.59146116759998e-05, 2.0002135623081012e-06, 1.5883982013566738e-07, -1.891464723951745e-05, 2.7405651385807997e-05, -6.686560570062013e-05, -0.0001246424937229427, -3.939994682903288e-05, -4.2295792651586086e-05, -7.87754939489147e-05, -1.090281809660246e-05, 9.194151104728806e-05, 2.317443249373979e-05, 0.00010422661881237626, -0.00014553719497302622, 2.3064183703107825e-05, -1.1985731186656181e-05, 5.572503482543967e-05, 1.8343248637330123e-05, -0.00019873212171698458, -4.72655196807542e-05, -0.00011272970094833411, 5.669992585313106e-05, -3.923808802544322e-05, 0.00014468258552269474, -0.00010063927308441062, -0.00011942660704107536, -1.8367084411765527e-05, -0.00014675308493824183, 8.528520888511947e-05, -0.0001836131444769756, 0.0001522491694794017, 6.193918054082842e-06, -1.02005219624869e-05, -8.308990365585288e-05, 2.5137506766857783e-05, -2.0294366725058113e-05, 0.00013022078384839245, -8.848712264135302e-06, -0.00018661200024691277, 1.7397383106007777e-05, -4.647878783204999e-05, 9.231604229691482e-05, -3.9108926154358054e-07, -4.3133743767517635e-05, 7.931519495161217e-05, 7.149475659089412e-05, -3.688726634452278e-05, 0.00023179608781135176, -7.59635650656249e-05, 4.240487486907651e-05, 3.198056815664786e-05, -3.376506573561974e-05, -7.196284084490123e-05, -0.0001291974167545548, -8.110569775989206e-05, 4.191232323644666e-05, 6.466904513964989e-05, 0.00019762985692835898, 0.00015637083652665946, -9.920611226397654e-05, 2.3667620112664366e-05, 8.893461406841852e-05, 9.362301107563132e-05], [5.6708482733222624e-05, -5.472039734488015e-05, 2.5717473727400177e-06, -0.0001220934244921525, 4.770393389089319e-05, -0.00010445294918219094, -0.00032071661266839835, -4.37931300306984e-05, -7.58983025325471e-05, -0.00025944657316425833, -1.789487329481155e-05, 0.0002556309183645003, 8.098388237147594e-05, 0.00016768198811609875, -0.00028938986897191735, 7.584278593115147e-05, 5.538997885079424e-06, 0.00011255162614085215, 6.523563998444381e-05, -0.000341617532885699, -4.925952892075901e-05, -0.00019225413033493037, 4.777689543779093e-05, -0.00013879193844223124, 0.0002852914977724569, -0.00019232346246548019, -0.00021457066080164333, -8.856227199580128e-06, -0.0002605441355691292, 3.2237251182246894e-05, -0.0002672629434344575, 0.0003036217629355375, 9.497792224116028e-05, -1.6136415799654987e-05, -0.00012271733713803632, 0.00013043387289709396, 2.683049389397792e-05, 0.00017927253083898314, -1.1313936068291762e-05, -0.0003674482006025617, 3.6450742433967895e-06, -0.00010422476528394373, 0.00016021028005635426, 0.00011441022551571069, -0.00011530272602835406, 0.00012791205941881553, 0.0002643176572574504, -0.00011052070070840858, 0.0004093333889826695, -0.00016833408024648433, 4.2584910012367345e-05, 2.888783045621851e-05, -3.05302273201635e-05, -0.00016287101401203804, -0.00018887200969024332, -0.00015221188514312492, 7.660526407153612e-05, 9.840944647987517e-05, 0.0004388320776542629, 0.00030294959215445324, -0.0001513685652003305, 5.916624895205523e-05, 0.0001969586235577535, 9.174162878466385e-05], [7.15391545949074e-05, -8.858448308270285e-05, 4.105059466026207e-06, -0.00019226784450441698, 7.051265225438424e-05, -0.0001528157128867027, -0.0004877888482818994, -6.145222551734404e-05, -0.00011248870685052738, -0.00039968051626504305, -2.6307642999048256e-05, 0.0003905034706215427, 0.00012508241983743185, 0.00024603784408846894, -0.0004325269524656296, 0.00011682839135301797, 1.1680560529828253e-05, 0.00016842383620010174, 0.00010083348018554183, -0.0005043854546717363, -6.844406184641751e-05, -0.00028365148286114516, 6.388360319327025e-05, -0.0002144792300852728, 0.00042612359697413314, -0.0002865475956027972, -0.0003180485650107463, -1.003241999746541e-05, -0.00038579265332523574, 3.227469699104562e-05, -0.00038812390993189436, 0.00045390075532702096, 0.00015152961640304432, -2.3637496205038234e-05, -0.00017849288555040428, 0.00020426648174385272, 4.788270388996116e-05, 0.00025871717386969625, -1.618251507170284e-05, -0.0005487754497316946, 1.8635040050983925e-06, -0.00015714337502512017, 0.00023674815596550863, 0.00018434068825659092, -0.00017575412081274655, 0.00018772799116612053, 0.0004092018702206661, -0.0001694915439807544, 0.0006058229498107306, -0.0002535970545580652, 5.881441871574794e-05, 3.915686146469255e-05, -4.1390865898460486e-05, -0.00024572050037109303, -0.00027441222729136696, -0.0002264490058316853, 0.00011371553887684097, 0.0001435888978511203, 0.0006611973441243775, 0.00045186903483949797, -0.00022092231753420718, 8.983288298588057e-05, 0.0002967078509966497, 0.0001261826130787247], [-8.634576340355871e-05, -0.00020154109253004397, 8.623691783113104e-06, -0.0003712484702545079, 7.789881285050987e-05, -0.00014755861978977088, -0.0007237093020896883, -2.3732148644507916e-05, -0.0001283255995215428, -0.0006594489899461108, -2.7133755990101943e-05, 0.0006016898262835444, 0.00021058721808252945, 0.0002473325450195883, -0.0005420671238632366, 0.0001926524168441132, 5.993505976390423e-05, 0.0002137717104451744, 0.00017072536738571225, -0.0005495462412062251, -1.6805084374811445e-05, -0.00030629190893477774, -2.0127408852502657e-05, -0.0003625152477284415, 0.0005303423347883175, -0.00034710367949368124, -0.0003632801927885583, 3.009159582999622e-05, -0.000435283401569942, -0.00017136302913101412, -0.0003355353241991785, 0.000570219776620566, 0.00031738429872802255, -2.3229120014518425e-05, -0.00015815378172194994, 0.0003800658731494084, 0.00016361923465090254, 0.0002013865661651065, -1.0594336783982664e-05, -0.0006821800010880148, -4.539225894697516e-05, -0.00021514653319534708, 0.00026069127315277244, 0.00040866588994568854, -0.0002658122837574644, 0.00018931404009231168, 0.0007012201154187273, -0.0002697437668585977, 0.0006797124637490341, -0.0003444804197561971, 9.348408229603183e-06, -4.444711482147919e-06, 4.5842282855489494e-06, -0.000338452293475181, -0.00023899871187507118, -0.00026982538364777654, 0.00013212930058168677, 0.00013341067166434658, 0.0008993735757159713, 0.0005539978206506333, -0.00020609358977311649, 0.0001312515657778046, 0.00040287762623542197, 1.2525911795503527e-05], [-0.00033872508846018395, -0.00034844079221738505, 1.4364951305007453e-05, -0.0005915112447984236, 7.191712133706788e-05, -0.00010292432090570963, -0.0009576027374298066, 4.724745340610891e-05, -0.0001248205875970247, -0.0009500812736448732, -2.2028147801142375e-05, 0.0008221754009449635, 0.00030781065514254904, 0.00019000446266539058, -0.0006010424971092524, 0.0002774454860383652, 0.0001289908691288368, 0.0002407480223118803, 0.0002505355202696302, -0.0004953300645920154, 7.658889455311286e-05, -0.0002716966257574587, -0.00016063709432413627, -0.0005313404886558787, 0.0005829343047911182, -0.00036828147514047604, -0.00035404737252391516, 9.22674856193356e-05, -0.0004160783462033938, -0.00048242883499300304, -0.00016373452140262446, 0.0006341436703610668, 0.0005279091353045758, -1.6927980928305284e-05, -8.487257663742787e-05, 0.0005927008186231864, 0.00032446199553221066, 5.368976550492007e-05, 1.6259871495819538e-06, -0.0007487007739307525, -0.0001162225634178417, -0.00026368810766257887, 0.00023933249968482854, 0.000698372882493478, -0.00035761348225331465, 0.00014646337608731407, 0.0010375912157140781, -0.00037823602557593737, 0.000643853637357246, -0.00041876276401418844, -7.848998310426693e-05, -7.881438766385949e-05, 8.302700799390067e-05, -0.0004173846469672314, -0.00012016461709755769, -0.0002798904720140053, 0.000132166736460405, 8.366917571892612e-05, 0.0010948625670694596, 0.0005972764746778202, -0.00013080058263264158, 0.00017130388670847418, 0.0004895442353999707, -0.0001871415363224426], [0.0010222246196591185, 0.000317643219301821, -1.1045102595946968e-05, 0.00034967461131365157, 0.00017079449751851647, -0.0004793050699299169, -0.0002327456888972458, -0.0003755219938645013, -0.0002516588256654828, 0.0001504657006728133, -7.362717848756405e-05, 7.175947445511216e-05, -6.869377607640517e-05, 0.0007216003512923498, -0.0007179285160565357, -4.343019596699474e-05, -0.00021313325396434509, 0.0002657312544307613, -6.0321821049351304e-05, -0.0012611031628182168, -0.00046766748082175346, -0.0007233580644744837, 0.0006203454886213369, 0.00012508218094826556, 0.0007262919486249963, -0.0005372964913052549, -0.0007092016556711636, -0.00023566492941083872, -0.0008878536352143879, 0.0011408703828702357, -0.0014187613118802824, 0.0007463946481700051, -0.00040287567630404187, -7.2060867380644e-05, -0.0006327278470093849, -0.00029782954928824883, -0.0004523865285390482, 0.0010600731894705848, -7.658455534793251e-05, -0.0009395081511855576, 0.00024809543165479425, -0.00016737845046785254, 0.0005778419348502276, -0.000605907061487097, -5.791525455365715e-05, 0.0005475136512409062, -0.00028783235601148637, 1.2950845703787805e-05, 0.001413873444644538, -0.00028408622043125427, 0.0004280101694413929, 0.00033972171864871456, -0.00035851821912941893, -0.00025128383814421775, -0.0009940211458659357, -0.00044760008593699454, 0.0002420621896162406, 0.0004772564788065794, 0.0007344371775978043, 0.0008132241962210493, -0.0007300279570356204, 5.3280044380687064e-05, 0.0003332194429791038, 0.0009569253411735376], [0.0006623232012868123, 4.716607749228505e-05, -1.7295728017242583e-07, -8.372284248005058e-05, 0.00019449624862138, -0.0004813035094970671, -0.0008258036863922668, -0.00029366155107389536, -0.0002988815334989018, -0.0004897693772932172, -7.79902754487906e-05, 0.000598351804843125, 0.00014144267501656427, 0.0007474741851520439, -0.0010124417184669268, 0.00014346389445545402, -0.00010001842707548642, 0.0003866664899593051, 0.00011131338015248139, -0.0014128300400316589, -0.00035414233395981276, -0.0008022848147220931, 0.000431240527228274, -0.00023853772894933612, 0.0010078555814550065, -0.0007045186148102007, -0.0008437738969767345, -0.00014344420608685584, -0.0010386104675936389, 0.0006710983546169069, -0.0013327442038274608, 0.0010586324340117468, -3.7382482690378824e-06, -7.330975801016841e-05, -0.0006020979798204638, 0.00012929746464311463, -0.00017923846468787043, 0.0009510191291580998, -6.511494908385457e-05, -0.0013002303846620122, 0.00013855815719727546, -0.0003166461308019646, 0.0006554336191056243, -6.79729924614509e-05, -0.0002833326285002874, 0.0005686442720027205, 0.00042815977766673077, -0.0002355513051927359, 0.0016417259659716966, -0.0005186545303413807, 0.00031863482338657766, 0.00024213436291183364, -0.0002556280610026122, -0.0004894114296905287, -0.0009373092806458671, -0.0005693513887506711, 0.00029538146636811556, 0.00046697227235013513, 0.0013488497325070115, 0.0010923286428157757, -0.0007161347620253287, 0.00015778849941886703, 0.0006072841050957028, 0.0007047843958822252], [0.0009651863980183961, 0.00017181328712361895, -4.789591022091121e-06, 7.960361132551852e-05, 0.00022896206868773834, -0.0005904443106248526, -0.0007648331231822435, -0.00039522860920267454, -0.00034729813033471997, -0.0003321507025294916, -9.3974908013431e-05, 0.0005133881322206016, 8.529733118490251e-05, 0.0009073859476295441, -0.0011198052697443735, 9.756531915626726e-05, -0.0001704942273228225, 0.00042411017439404635, 6.449203212323993e-05, -0.0016717981164323396, -0.00048286044959789347, -0.0009523863169075638, 0.0006093949386814058, -0.00013996380359886573, 0.001119622854922625, -0.0007951078197852127, -0.0009799295876009788, -0.00021504688408509453, -0.001212474426590277, 0.0010222216550424658, -0.0016735008226427114, 0.0011690890256157917, -0.0001726270628512855, -8.953591389820069e-05, -0.000752577723753706, -2.0974963048240204e-05, -0.00033518983252114323, 0.0012142465993213354, -8.482293324301899e-05, -0.0014454825796215603, 0.00021633449929994036, -0.00032616174193644804, 0.0007725403721391677, -0.00030997261543740746, -0.0002531772192871358, 0.0006896886745255003, 0.00022456947096624017, -0.00018475887855483984, 0.0019209503332846705, -0.0005384197766560969, 0.0004374921144549603, 0.0003385479413211151, -0.00035735751915061447, -0.0005009959300402243, -0.0011753681614556461, -0.0006481966377429982, 0.0003404316458243505, 0.0005780091825783119, 0.0013984096955744665, 0.001224434065590446, -0.0008856268809990639, 0.0001498471086192545, 0.0006306742574634254, 0.0009719838057542507], [0.00193743886483216, 0.0009257437065358951, -3.518361759952491e-05, 0.0012958800801451886, 0.00015264548217040026, -0.0005600185719125774, 0.0009362138291824493, -0.0006089896175057289, -0.00019982063706704706, 0.0014834818207713008, -7.774928321677638e-05, -0.0009900562362431067, -0.0005096289158170831, 0.0007964593431430343, -0.00024398000133033984, -0.0004324701127400846, -0.0004816480390974103, 6.597232093756034e-05, -0.00042121422117687233, -0.0011745999182191911, -0.0007820478202282881, -0.0006902736643625401, 0.0011159557005005765, 0.0008891752973119224, 0.0002802465277863456, -0.0002911304446487747, -0.0005600684388902762, -0.0004655313088363602, -0.0007373001742110348, 0.0023012643168406487, -0.00184526452406068, 0.00024131495862199836, -0.0012885851682326924, -8.226041435886662e-05, -0.000807160533315639, -0.001222068567275099, -0.0010897737481220544, 0.0014701296339955081, -0.00011353642417753564, -0.00036965875430728756, 0.0005154952032965645, 0.00010759183577981171, 0.0005217392482803838, -0.001810747946355474, 0.0003918028382514219, 0.000601254404267473, -0.0017997313587615857, 0.0005223099117966398, 0.0011990617974088626, 0.00014429363005892656, 0.0007269072867482528, 0.0005989468313355869, -0.000631888875487722, 0.00019016161251637562, -0.001285588559689651, -0.0002783494177344306, 0.00017608627790958407, 0.0005826702830921687, -0.000389344684885345, 0.0003875754605257957, -0.0008875223521280152, -0.00015054370025955648, -0.00016706071547395435, 0.0016407028693890225], [0.00205562808878244, 0.0008141909295654875, -2.9933439765371145e-05, 0.0010462945001851272, 0.00025075042834091335, -0.0007750313841367708, 0.00027839820436632287, -0.0006994700015932659, -0.0003558699819785595, 0.0009519835835046229, -0.00011456904033747214, -0.00046595408362323765, -0.0003437681238169829, 0.0011415354955583645, -0.0008385129555993864, -0.0002770986939439125, -0.00047070224835827755, 0.0002971766385715875, -0.000287616490225211, -0.0018772219723530794, -0.0008839088036131113, -0.001085718531034174, 0.001215069621026691, 0.0006049335232696792, 0.0008663950670118664, -0.0006863617191734677, -0.0010012282839454692, -0.00048413438849047313, -0.001273033076537226, 0.002369521842846497, -0.0023957838800624117, 0.0008650733497393076, -0.0010946797568332322, -0.00011547287864427735, -0.001059903042972767, -0.000955288512156401, -0.001035644312364957, 0.001839609916336974, -0.00013687293245023702, -0.0011246109468872685, 0.0005234407818437988, -0.00010635694619176163, 0.0008512258621245219, -0.0015774004178182002, 0.00015535690035766933, 0.0008644815935343631, -0.0012585115029463292, 0.00029580113661543066, 0.0020407726418594464, -0.0002012826969993379, 0.0008150115342798889, 0.00065880748265172, -0.0006951518706259375, -0.00014415439487915448, -0.0016746185545300257, -0.000591192786712172, 0.00033356633081984817, 0.0007852918522632963, 0.0005115305155899107, 0.001010083868594513, -0.001199177103171829, -2.9169181647061682e-05, 0.00023728107474935516, 0.0018305744608290758], [0.0022160581460581984, 0.0008514295017342174, -3.111165740147755e-05, 0.0010765036384161385, 0.00028422061488901835, -0.0008638302060885892, 0.00018820390339603375, -0.0007624084948503522, -0.00040616481045602486, 0.0009289073426654579, -0.00012853212119815128, -0.00041081606778310757, -0.00033976485662919346, 0.0012770412551225492, -0.0009946980983521565, -0.00027027123120353287, -0.0005011245883814452, 0.00035593452682407186, -0.00028512604053239544, -0.00212250635876986, -0.0009613706226519223, -0.0012257673751475703, 0.001314757790418187, 0.0005991555546694601, 0.0010230973270927723, -0.0007990214103073384, -0.0011430832711894665, -0.0005203848133045669, -0.0014492137090081354, 0.0025431581994392913, -0.0026513225972719648, 0.0010279320659588736, -0.001137451471576824, -0.0001288986969314063, -0.001174480849576581, -0.0009764082589456897, -0.0010975891860857468, 0.002026983331769045, -0.00015012413934986968, -0.001327037770807369, 0.0005606132634865608, -0.00014917862853429045, 0.0009642576410605808, -0.0016466844335077705, 0.00012672435981506722, 0.0009674156422700175, -0.0012548159269111909, 0.0002784387893278836, 0.002320361931653208, -0.00027246955439045857, 0.0008854692912201281, 0.0007138748947410879, -0.0007532737954406067, -0.0002095579516973992, -0.0018539381999368183, -0.0006836493371022368, 0.0003825711259728478, 0.0008727352759223343, 0.0006962025813316915, 0.0011826673606163643, -0.0013330796999906267, -1.100683020619636e-05, 0.00032069454434336406, 0.001987496043639476], [0.002404600955099255, 0.0009168529546491804, -3.344978444215217e-05, 0.0011543696406133173, 0.00031210998945783335, -0.0009448770169374176, 0.0001743625194306496, -0.000829501368202234, -0.0004467286908270439, 0.0009819658624878973, -0.00014080712711222657, -0.00042136101605632194, -0.0003604479499555224, 0.0013980730385389263, -0.0011035321855875247, -0.00028567635238003304, -0.0005420764032028557, 0.00039570406892041644, -0.0003027329076571386, -0.002329437625719738, -0.0010454256362530756, -0.0013448105438637334, 0.001427913786769719, 0.0006359975064226144, 0.0011339051296999135, -0.0008827647569631793, -0.0012573322912259705, -0.0005642502450730627, -0.0015930060833517486, 0.0027565189376875065, -0.002895185793472595, 0.00114082088785047, -0.001222846597779144, -0.00014104276702887292, -0.0012829038534421635, -0.0010452281392462064, -0.0011859360031547348, 0.0022111233765628015, -0.00016358200623462304, -0.0014705260186285323, 0.0006073290327902864, -0.00017107889851588056, 0.0010587265340679778, -0.001772428086928199, 0.00012663457211986552, 0.0010591838156499165, -0.0013343912838920402, 0.0002913394129510879, 0.0025498725375880053, -0.0003104494231384954, 0.0009626326100179135, 0.0007755854851322586, -0.0008183946144051238, -0.00024183191973284197, -0.0020246419632283063, -0.0007541690140123962, 0.00042124785237332104, 0.0009539645991360177, 0.0007940460797972587, 0.0013082963293281336, -0.0014572516744269426, -6.491469342528061e-06, 0.00036528932247809304, 0.002160341919192188], [0.002589319525695134, 0.0013932600989596817, -5.3890364181316886e-05, 0.0020370857874362778, 0.0001215482582980501, -0.0005805001654293523, 0.0019151292258020407, -0.0007643686009032852, -0.00013345902623564657, 0.002560232731393682, -7.412128954731697e-05, -0.0018659658405829204, -0.0008639970984694617, 0.0007891069642249109, 0.00021221653418682747, -0.0007467651339860094, -0.000681155824801018, -0.00012279918897129468, -0.0007108644051902225, -0.000983867846309773, -0.000994890063254857, -0.0005944035629567511, 0.0014626131712127206, 0.0015026824884662848, -0.00015390696674953002, -3.854951765134624e-05, -0.0003705598296813353, -0.0006312630217983141, -0.0005296394284731217, 0.0031425389208785395, -0.0020594298215320986, -0.0002430692356138807, -0.001975216150652072, -8.375570028829278e-05, -0.0008897599219355241, -0.0019502253885900194, -0.0015684470356199535, 0.001704944415146262, -0.0001364980130025197, 0.00018610374676440212, 0.0007107654826352011, 0.0003485697862505633, 0.0004208673986705011, -0.002739276572431459, 0.0007654002106481261, 0.0005931724884663513, -0.003009832608994765, 0.0009379834947302393, 0.0008887822574833143, 0.0005219345730329752, 0.0009308480536351926, 0.0007788126384574105, -0.0008215451314569234, 0.000575377131814157, -0.0014297027821367713, -9.725301020038612e-05, 9.906571846396634e-05, 0.0006235636416856771, -0.001378993148866599, -3.815075260767599e-05, -0.000947004748235457, -0.000322438251790318, -0.0006082238629187223, 0.002109364855105038], [0.0024958517795806785, 0.001466475454353361, -5.7381891329375256e-05, 0.002205119739362576, 5.189268955637362e-05, -0.00042661053601784254, 0.002371510084819056, -0.0006975760742165066, -2.2896451977152606e-05, 0.0029250163673304173, -4.786741342036374e-05, -0.0022282487141595175, -0.0009775781434110716, 0.0005426853720132994, 0.0006306312825674717, -0.0008534078251034681, -0.0006862109865612502, -0.00028535649577161355, -0.0008022934054937831, -0.0004845554145478764, -0.0009191709426506517, -0.00031322498001601986, 0.0013870023062358956, 0.0016972444292366927, -0.0005666373096627012, 0.00024030495944198457, -5.8019857184726345e-05, -0.0006156764081922248, -0.00014978770176313674, 0.003082118135246341, -0.0016631694355594827, -0.000681972135125712, -0.0021042282501515254, -6.000789293961758e-05, -0.0007080553241310144, -0.002130723943033085, -0.0016004843788890702, 0.0014377327681901787, -0.0001195081643732418, 0.0007177428277605611, 0.0007023833100196017, 0.0004980762692222274, 0.00018687890435429845, -0.0028931143086252686, 0.000929141047022579, 0.0004052341582889426, -0.0033797135866357048, 0.0010940421484500506, 0.00029176091151023525, 0.000763582466618197, 0.0008650801339878012, 0.0007335556340649477, -0.0007737218175265781, 0.0008088756585292764, -0.001149781582017664, 0.00012373384049657645, -1.237125880578473e-05, 0.00047824351240059173, -0.0020088677958382136, -0.0004769734739100493, -0.000723533390772722, -0.0004067666708575479, -0.0008909737692733714, 0.0019672258331412352], [0.003093020266228536, 0.001602531590087232, -6.165501278150042e-05, 0.0023125661148426404, 0.00017782990683609217, -0.0007598982988521432, 0.0020249006249059907, -0.0009326634566139124, -0.00021229797533408532, 0.0028296545289378883, -0.00010033029034303513, -0.0020141139949202773, -0.00095967971369154, 0.0010515900228275925, 4.04428293312269e-05, -0.0008252281468563503, -0.0007988383174404465, -6.318501988581934e-05, -0.0007905991719537062, -0.0014071787479114787, -0.0012083310045739033, -0.0008399054034573283, 0.0017585436952945851, 0.0016705862355727785, 2.5314752188469156e-05, -0.00018479215165077484, -0.0005922398210303593, -0.0007504622282290401, -0.0008130525849624354, 0.003727346826883332, -0.0026210252407370444, -6.649544106246931e-05, -0.0022592903631711574, -0.00011041183681691178, -0.0011376448775764648, -0.0022041437579656776, -0.0018292263001848, 0.0021394502875391637, -0.00016908283167689706, -4.68954519101709e-05, 0.0008403927381493724, 0.00033532556582031354, 0.0006121464929545454, -0.003145778169328147, 0.0008186003726132241, 0.0007918328696255006, -0.003356050842905642, 0.0010254825598928544, 0.0013441711917221125, 0.0004932110179907141, 0.0011280108339611645, 0.0009388878741995784, -0.0009904450590678018, 0.0005601601522588983, -0.0018219893775136232, -0.00022491928811065672, 0.00017227218063253644, 0.0008062764875741194, -0.0013073928476534987, 0.00017454693746179163, -0.001225877467986693, -0.00033717422062056693, -0.0005741758290332606, 0.002552701019767819], [0.0033669492895896857, 0.0016948534616933817, -6.49318350648048e-05, 0.0024203557193386285, 0.00021979243305822606, -0.0008805877042748972, 0.0019931742386009323, -0.0010310075204242872, -0.0002735697236078432, 0.002896635327582863, -0.0001186855371520852, -0.002019937179094562, -0.000986529488559995, 0.0012322515607141517, -0.00012709794513217508, -0.0008446566098087457, -0.0008576808916868557, -1.713507426641198e-06, -0.0008135914449760906, -0.0017180762632797828, -0.0013313323097303216, -0.0010186014094162798, 0.0019234494640319702, 0.001718613061776687, 0.00019555090407188122, -0.0003125941144740993, -0.0007648423981376757, -0.0008140340259433716, -0.001029938954555948, 0.0040361612342721745, -0.0029824439786260404, 0.00010741386875736704, -0.0023789307969120845, -0.00012851376524924502, -0.0012984765393254864, -0.002298584259529937, -0.0019556234034197916, 0.0024115289871340924, -0.00018890206985802983, -0.00026726638914604145, 0.0009078830236449908, 0.0002999242015812854, 0.0007542344842441241, -0.0033228814910331913, 0.0008142396384507383, 0.0009288416127607493, -0.003461085842268935, 0.0010400273670670118, 0.001690109407240106, 0.00043227286872776354, 0.0012408304998547909, 0.0010289245824395975, -0.0010854590320305358, 0.0005076494600733242, -0.0020750474230772026, -0.0003321828970983118, 0.0002308489040338974, 0.000927007267081285, -0.0011502146153288169, 0.0003668007948742839, -0.001410467994074438, -0.00032849257714505494, -0.0005026496215121099, 0.0028052832392251965], [0.001984938363189028, 0.0003266817934728122, -8.676471735525472e-06, 0.00011156766154209976, 0.000484955634458914, -0.0012429612915541225, -0.0016863314571862933, -0.000821262044575681, -0.0007370542893199383, -0.0007817613243953927, -0.00019835169646365453, 0.001148533233925928, 0.00020666375460495502, 0.0019131092122319586, -0.002394881222617353, 0.00022948232924930044, -0.00034422896262760374, 0.0009082399465821797, 0.00015790256973953134, -0.003538215050811247, -0.0010016105400509658, -0.002014672910077849, 0.0012581654664511983, -0.0003415422489855966, 0.0023928248554437167, -0.0016950535452622706, -0.0020798296305079176, -0.00044069704478333143, -0.0025713550484539553, 0.002090790173286935, -0.003511094025733329, 0.0025008974650840973, -0.0003117780315186103, -0.00018860678220356263, -0.0015799881732956017, 1.1017734257694803e-05, -0.000670194089188822, 0.002541530282235895, -0.00017704481418369015, -0.003088882440812421, 0.00044117064072294514, -0.000705747844110205, 0.0016359802331413849, -0.0005829224433511556, -0.0005619726833376559, 0.0014543109986751587, 0.0005651200510112163, -0.0004209545798067391, 0.004072435280121282, -0.0011635021491852617, 0.000906660133104929, 0.0006999355830429119, -0.0007388390855875528, -0.0010851961749641606, -0.002466463167764398, -0.0013799782434179588, 0.0007233898303497998, 0.0012152028748837105, 0.0030225727062042178, 0.0026131025276728143, -0.0018621771650779273, 0.00032887924749968147, 0.0013627703458362072, 0.0020131621029773248], [0.0038112554599900794, 0.001897990721863061, -7.259713495696343e-05, 0.0026996188973578365, 0.00025963887830489607, -0.0010188743335294013, 0.0021688968497486994, -0.00117357244511784, -0.00032723677879803383, 0.0032029274701350116, -0.0001382642619227135, -0.0022151179480036603, -0.0010926637228126919, 0.0014310647327581139, -0.00021465009984618228, -0.0009339247455859167, -0.0009659370090916206, 2.5800981737714737e-05, -0.0009015027878035653, -0.0020218420400319576, -0.001513628973539321, -0.001196162508561021, 0.002181059821686181, 0.0019040712523284411, 0.0002908422260795561, -0.00039993687151579685, -0.0009154692767555879, -0.0009202586806424097, -0.0012257762420692, 0.004559970104338331, -0.0034294882460886834, 0.00019595702047118017, -0.0026595808644970663, -0.0001489153486637677, -0.0014946743863451352, -0.002560228574180799, -0.00219896216774309, 0.002763922654836219, -0.00021583364454004608, -0.00039196770778865446, 0.0010248185390736967, 0.0003125760846181213, 0.0008901107845102731, -0.003719390490983566, 0.0008898969534277238, 0.0010790761033302881, -0.0038383206431115893, 0.001145721138184404, 0.0020069863672771823, 0.0004460433779592544, 0.00140991537415308, 0.0011675505167220415, -0.0012317153829286384, 0.00053240005615603, -0.0023868004576334, -0.00041214554574700254, 0.00027922997311303897, 0.0010697376617260315, -0.0011890933382498587, 0.0004883307949186027, -0.0016280394289124062, -0.000355898537949662, -0.000518361762513747, 0.003186434775546071], [0.004043757783234042, 0.0019933004287514804, -7.612452754792008e-05, 0.002824259085102526, 0.0002862982269673125, -0.0011030682132955542, 0.0022140876951748435, -0.0012516640252786166, -0.00036473027513256816, 0.0033225231795004965, -0.0001506078257343532, -0.0022790225007922505, -0.0011353205064449784, 0.0015544957578988046, -0.00029838054944229434, -0.0009687496096812216, -0.001019948837686267, 5.505901072896806e-05, -0.0009370867872988446, -0.002222072338232271, -0.0016125657653305358, -0.0013121908052278121, 0.0023178956963311663, 0.0019789799106474616, 0.00037792939029526295, -0.000470333232220679, -0.0010209128576832527, -0.0009752045670413077, -0.0013603569704368828, 0.004829357851913189, -0.003692070012757826, 0.0002821283290593712, -0.002788617963779351, -0.00016143555439213154, -0.00161065456361069, -0.002674818761973867, -0.0023184106024790926, 0.002966629478040362, -0.00023100016263870394, -0.0005051296337579902, 0.0010844728680726229, 0.00030477296990840145, 0.0009806838582415024, -0.0039043923048761417, 0.0009124585363212167, 0.0011725113904617359, -0.003993142355940203, 0.0011841298310441423, 0.0022230778806683425, 0.00043006939426071765, 0.0015012587193033154, 0.0012416180791325728, -0.0013098669916940166, 0.0005227253928617529, -0.002570255429737259, -0.00047334193274226126, 0.0003141456377717816, 0.0011553560336026378, -0.0011489582655015184, 0.0005910985196882339, -0.0017587370596402543, -0.0003617000479856564, -0.0004994691122039458, 0.0033917615190044758], [0.0039935813922250445, 0.0021436014363062092, -8.288495334150856e-05, 0.0031315610247956115, 0.0001902487740272996, -0.0009009870621106305, 0.002931363504436764, -0.0011805780655944854, -0.00021034404056960668, 0.003929236140839618, -0.00011532418008842762, -0.002859623071870833, -0.0013263979744685915, 0.0012263496730297921, 0.00030915021614546574, -0.0011460637906072328, -0.0010493028096391866, -0.0001822803324321594, -0.001091396637292859, -0.0015372124014412323, -0.0015361436929479738, -0.0009278337611019075, 0.002256802273177213, 0.0023070271415668304, -0.00021954964818088219, -7.128023767408765e-05, -0.0005842740052344587, -0.000973308125567288, -0.0008322508191104523, 0.00484456811749399, -0.0031900361687087317, -0.00035581464456277574, -0.0030378958281070457, -0.00013006198867316948, -0.0013786768207340078, -0.002997196186126583, -0.0024152825769643603, 0.00263834904493619, -0.00021103883498223272, 0.0002640907791118317, 0.0010954977195150703, 0.000530701629354153, 0.0006584399068533813, -0.0042140947022321976, 0.0011723432696882877, 0.0009219634553524955, -0.004621758012554729, 0.0014385852870206568, 0.0013948693678294008, 0.0007938937479820222, 0.0014370443152068835, 0.0012019155508556252, -0.001267866722951486, 0.000876584809435603, -0.0022148010505032723, -0.00015926394854872796, 0.00015738843119210202, 0.0009669736520903212, -0.0020978967556559195, -4.0081665486955044e-05, -0.0014686590001788042, -0.0004932160109804384, -0.0009250958604782982, 0.003256146076291751], [0.002747143584286374, 0.00193937636722779, -7.747681852528646e-05, 0.0030632901512757825, -0.00011476111910486328, -0.00011948834172348658, 0.0039941809719501245, -0.0006645781991841888, 0.0002532702288004518, 0.00442352516849408, 9.404843340252343e-06, -0.0035840217552983796, -0.0014572434504574788, 2.340391204545319e-05, 0.001816164080422977, -0.0012911554735694718, -0.0008333643513077287, -0.0007538435340026492, -0.0011914177781208002, 0.0006880346748689715, -0.0009068898935876054, 0.00033919795315196416, 0.0014665711093580108, 0.002523339232001295, -0.0017252145742649178, 0.000995178475406199, 0.0007239646331211704, -0.000696626645663001, 0.0007850958211687507, 0.003532053259655593, -0.0009828696910338674, -0.001929561053766836, -0.002843597957272505, -1.147338419922073e-05, -0.00038541955445550946, -0.003005971593850044, -0.001995091744739943, 0.0010408784176897073, -9.977464835531275e-05, 0.0022077322055510497, 0.0008185934041058701, 0.0009750740752822982, -0.0003704896635676885, -0.0038499201268219056, 0.0015266491131339203, 7.4995341143154e-06, -0.004980165450726742, 0.0017043283646172578, -0.0011665886909611929, 0.001526440270687586, 0.0008674709595151296, 0.0007622656165821291, -0.0008037798404966798, 0.0015599132278957077, -0.0006643010651281809, 0.0007088999498052407, -0.00029766092985927524, 0.00020298069611555125, -0.00400094483280056, -0.001684231666643645, -0.00029790794296870993, -0.0007004452729265734, -0.0017830996634322226, 0.0019914968026629567], [0.0032538495307640677, 0.0008367922180893774, -2.7485070216079704e-05, 0.0007721420670181819, 0.0006357657317932682, -0.0017132820471513841, -0.001482477167237962, -0.0012506480632856686, -0.0009502882620558333, -0.00016627198555999574, -0.0002676377200750291, 0.0008347417565299753, -1.435583318665943e-05, 0.0026044914757029033, -0.002886536501933309, 5.029711416244358e-05, -0.0006365922581002016, 0.0010815135935226155, -2.6769727331398567e-05, -0.004668754012144305, -0.0015448112485742765, -0.002669055463701426, 0.002006822006094679, 4.702679552127418e-05, 0.0029021657337926342, -0.00210183820185901, -0.0026796555766037287, -0.0007399850864684798, -0.00333521290261334, 0.003556692310425664, -0.004970374270755025, 0.0030076325935605736, -0.0009997076182199857, -0.000258624527708421, -0.002225142266317544, -0.000593948048595132, -0.0013148820968173244, 0.003664571541751717, -0.00026080001239022513, -0.003750304321358824, 0.0007653354904646452, -0.0007615295676720819, 0.00214810598544495, -0.0015720203664425843, -0.00045441886179241743, 0.0019778024916260978, -0.00024088355496060392, -0.00022679489497457077, 0.0052977724907617325, -0.0012718878692492969, 0.0014077967282082491, 0.0011055644158956583, -0.0011668404667311036, -0.0011586961760718776, -0.0034862784615040756, -0.0017316695127280119, 0.0009227272077641757, 0.0016924738122774355, 0.0032969437062851143, 0.003209806020942585, -0.0025908855434412996, 0.00030502923000495064, 0.0014906846360835666, 0.0031391316578909642], [0.004645694247297341, 0.0024646110104712465, -9.514181641932531e-05, 0.003586155536324378, 0.00023664994542486352, -0.0010793439533695025, 0.0032865519343296323, -0.001382565579444402, -0.0002695370850735209, 0.0044634177403065495, -0.00013969546095624123, -0.003225623282905157, -0.0015089707838220978, 0.0014778071723307268, 0.0002595205553394306, -0.0013018143270435466, -0.0012136787489793034, -0.0001728088572815957, -0.0012420996695658073, -0.00189719826528827, -0.0017963338394401736, -0.0011403644192335325, 0.0026306765155563656, 0.0026252828132716606, -0.00015711925125130397, -0.00014811245315736127, -0.0007499719226787759, -0.0011305480423300844, -0.001052907308407025, 0.005623181951446733, -0.0037865765057761808, -0.00030872924559005783, -0.003486889069264769, -0.0001561692685167584, -0.0016389482297462842, -0.003427658244984331, -0.0027888443954766774, 0.0031174894530725957, -0.0002483336572132855, 0.00018072157393007068, 0.0012703229469230282, 0.0005792755131317767, 0.0008173652103216414, -0.004842836336538194, 0.0013188111232939638, 0.0011116382088506203, -0.005264010731232836, 0.001628869113064147, 0.0017553762109293004, 0.000862324349494175, 0.0016792575313050325, 0.0014022047626306776, -0.0014791656645028461, 0.0009599795624393336, -0.002630100903182234, -0.00023636854311708932, 0.00020843149766111164, 0.0011537267731817733, -0.002280771225510227, 5.680299815109214e-05, -0.0017529516418112023, -0.0005512047676551603, -0.0010045612740821029, 0.003803349494536963], [0.003276618244906073, 0.00225896574935248, -9.002358485636871e-05, 0.003547690922197365, -0.00010823827201155582, -0.0002008538822146221, 0.004533395161153033, -0.0008098690829702824, 0.0002556806214329623, 0.00507546633244701, 8.706590589313262e-07, -0.00408625503461419, -0.001674578454883991, 0.00012355174708342823, 0.00197923085026107, -0.0014813810497336657, -0.0009809757572858432, -0.0008258565537816566, -0.0013696651662872884, 0.000617116236494907, -0.0010991487211209705, 0.00029060011025623114, 0.0017592443795154558, 0.0029004958012237305, -0.0018741702017151713, 0.0010652268044640742, 0.0007322172381896539, -0.0008277322580786142, 0.0007781121904247936, 0.004189543317442343, -0.0013135724943534233, -0.0021050040290267907, -0.0033037600158714706, -2.2779212791613672e-05, -0.0005253468878524399, -0.0034752310802668423, -0.0023407145557718216, 0.0013317465301975904, -0.00012429828881082024, 0.00239699592574257, 0.0009687855695460541, 0.0010918770213137914, -0.00034588234262576494, -0.004481039745785743, 0.0017369113732027554, 8.202157590600384e-05, -0.005730032685084182, 0.0019494732332914887, -0.0011435213163447412, 0.001706331033810572, 0.0010487799090376376, 0.0009167052080513014, -0.0009666699986278839, 0.0017489850669904078, -0.0008925263156368726, 0.000750095875501937, -0.00030769850386489986, 0.00029599555775223607, -0.004473821251236473, -0.0018156719463576696, -0.0004383902791951409, -0.0007933332154093113, -0.001993054408086516, 0.0024042919397045436], [0.0044012523229469734, 0.002608126814167224, -0.00010216181048002147, 0.003931801233327364, 7.982787569470637e-05, -0.0007285049689080882, 0.004276036365998018, -0.0012231086435345751, -2.1450899953107495e-05, 0.005239878627341597, -8.019085218384041e-05, -0.004006246955458597, -0.0017497971608737746, 0.0009179815887858921, 0.0011883274107456572, -0.0015288327426679585, -0.0012153882226210247, -0.0005330917507020739, -0.0014357414510354372, -0.0007714717040832385, -0.0016137666664749325, -0.0005058665838225571, 0.0024417941595011117, 0.003037495505950487, -0.0010740846654011126, 0.0004734181268583946, -4.87720830925805e-05, -0.0010869890340900138, -0.00019957882508229047, 0.00544457869481136, -0.002875263357603309, -0.0012827293646988825, -0.0037465029696822157, -0.0001021104574437621, -0.0012218321591943627, -0.0038022793325271555, -0.0028382038631507202, 0.0024985281537714048, -0.00020858505690623017, 0.0013620374567896382, 0.0012416933278629042, 0.0009073303808890885, 0.0002903890624986643, -0.005147025125394274, 0.0016727220632037389, 0.0006847974186310981, -0.00604552083576239, 0.0019632531788538504, 0.00041339130426313556, 0.001393141834947587, 0.0015197487177433268, 0.0012905035225278876, -0.0013611504268208495, 0.0014718998288651194, -0.0019866944530977045, 0.0002571175846753649, -4.1119819619193266e-05, 0.0008213678527949464, -0.003664129918649068, -0.0009198909934640957, -0.0012420213755110615, -0.0007344787551020794, -0.0016257006336708316, 0.003457247619336205], [0.005457104583003782, 0.0027584623047398225, -0.00010574540844272722, 0.0039453076983698545, 0.0003501765835433881, -0.0014149016855589656, 0.0032793012904393545, -0.0016674029754137638, -0.00043357989598458434, 0.004737276021456123, -0.00019017469529428345, -0.0033137768064431007, -0.001612394648143263, 0.001976981414053355, -0.00016643878866118297, -0.0013814119470881123, -0.0013928695357093481, -1.8281748390148427e-05, -0.001329529092280105, -0.0027415719350981954, -0.0021541090109088597, -0.0016268205834308613, 0.0031153819017293244, 0.002808604930035887, 0.0002781095989376603, -0.0004808865999808066, -0.0012118694767789694, -0.0013200435588988694, -0.001635817757111214, 0.0065466764407169495, -0.004804014398787274, 0.00013252944472590526, -0.0038743363411220494, -0.00020636912167590384, -0.0020906640572444907, -0.003748808394686886, -0.0031778784912576633, 0.0038894770344927066, -0.00030504986968516535, -0.0003831968349842995, 0.0014730880750420214, 0.0005011624429172742, 0.001202138191882392, -0.005409144259258976, 0.0013374763888801642, 0.0014899921023667868, -0.005654109688432685, 0.0017032951509646259, 0.0026868529843235307, 0.0007248074111433943, 0.00200813423588487, 0.0016660748962134093, -0.0017576100912758774, 0.0008463992127244658, -0.003342009869361227, -0.000518205407099537, 0.0003641421296822738, 0.0014910778482890965, -0.0019273555498254661, 0.0005536344031100885, -0.00226849219056334, -0.0005413265021543175, -0.0008429784723180016, 0.00454063649411163], [0.00046673987355951404, 0.0013091892224271666, -5.628913572474312e-05, 0.002436605732429738, -0.000537214223142217, 0.0010341615117819426, 0.004847058748357777, 0.00019803519103113478, 0.0008818175242945921, 0.0043781531616750675, 0.00018862470152200702, -0.004016895187703949, -0.001395917835829516, -0.0017247343154324038, 0.003688264215408969, -0.001279096232871967, -0.0003767227588189559, -0.0014526701857749298, -0.0011311938493307862, 0.003795812993719108, 0.0001616682688224407, 0.002117788027554167, 6.82037326083604e-05, 0.0024022763494956976, -0.0036110264492092074, 0.0023699619829071813, 0.0024960168511114545, -0.00017547126428412246, 0.002994781457776309, 0.0010206335622264529, 0.0023865343934631983, -0.0038788797824410755, -0.0020720371749281406, 0.00016244031840601303, 0.0011210621050081117, -0.0025008677695913294, -0.0010421859647158354, -0.0014545431598660253, 7.873096517795289e-05, 0.004645428570875038, 0.00027610420559889647, 0.0014513810393147546, -0.0017984737534052022, -0.00265870621709984, 0.0017773541711265, -0.0013196397682455109, -0.004641893514409035, 0.0017960214375680097, -0.004679388239549074, 0.002325578463960953, -0.00010776819141074274, -6.4790625279269374e-06, 7.546558046997978e-06, 0.0022819256584761163, 0.0016981480107313943, 0.0018454992273858927, -0.0009061432694903724, -0.0009396710987688248, -0.006070876681870846, -0.0037778878904879227, 0.0014508401104964732, -0.0008802363423442408, -0.0027199200138580204, -0.00018513872403799173], [0.0016456667164524686, 0.0018506370725235232, -7.67357886920406e-05, 0.0031823804392588874, -0.00043277529547038247, 0.000669857810000687, 0.005323710137942301, -0.00017947330677195043, 0.0007415068952209401, 0.0051999089658977225, 0.00013714034000699468, -0.0045432820788447485, -0.0016803970291043393, -0.0012015089411620836, 0.0034643740316602795, -0.0015186019514001517, -0.0006645566386205691, -0.0013829636087969509, -0.0013667731151527863, 0.002998964827784342, -0.00032125289385543244, 0.001651779049309949, 0.0007512989279315521, 0.002899290930753677, -0.0033664471151741543, 0.002143689996955613, 0.002102255016446406, -0.00045747124239472494, 0.0024822747904748306, 0.002411561647588016, 0.0012067052220347742, -0.0036527870514100544, -0.0028206764335391692, 0.00010871616662045792, 0.0006034252735588022, -0.0032000767891845958, -0.001689616008092063, -0.0005235631107451046, 7.50885665898735e-06, 0.0043251857128694384, 0.000586723623215222, 0.0014881554795537454, -0.0014422627483673945, -0.0037158026758310676, 0.001981886667811226, -0.000924297434412379, -0.005652310879682673, 0.002080224287779797, -0.003849749840829735, 0.002367266009205771, 0.0003402476635450365, 0.00036101364467126476, -0.000380172544268861, 0.0023526249390939525, 0.0008754518559969933, 0.0016376240252628928, -0.0007799003560851474, -0.0005633761542008815, -0.006187471696973884, -0.0034641197040501995, 0.0008772750719401203, -0.0009548524813491772, -0.0027676334810828426, 0.0008249084607241167], [0.004494017479724861, 0.0028826986262409306, -0.00011398186048981831, 0.004444183320469558, -3.453731102897608e-05, -0.0005074985950033605, 0.005300532730336891, -0.0011791883414425748, 0.00016611366947061096, 0.006163232257376356, -3.9958391495618367e-05, -0.004854593579190943, -0.002044079825088497, 0.0005498340152035123, 0.001970943548387169, -0.0017985974490307257, -0.0012937109892412002, -0.000841239161761864, -0.0016741896673317226, 3.6908417900865164e-05, -0.0015770039104236648, -5.473784903545547e-05, 0.0024526955642730727, 0.003543896570961117, -0.0018404435114598024, 0.000976730694883495, 0.0004821186839352924, -0.001122701851971222, 0.0004376049290069275, 0.005653598816530123, -0.002363484912789848, -0.002105743715212789, -0.00418162702733546, -6.74141883024652e-05, -0.0009816169748064374, -0.004328518921665731, -0.0030556535533665555, 0.002185508813445261, -0.0001915338312146273, 0.0023479539102208603, 0.001298579096762037, 0.0012146513885429645, -9.251430122915324e-05, -0.005704847266779264, 0.002048237136984419, 0.000403143922608815, -0.0070237743181673674, 0.002342309429760899, -0.0005823671399090049, 0.0018856583314118727, 0.0014945874321000878, 0.0012872213120816945, -0.0013575369458749046, 0.001955016623209055, -0.0016226238455143277, 0.0006492137560461941, -0.0002337653240175655, 0.0006203193771190969, -0.004949794137462785, -0.0017219631893430464, -0.0009316437137370604, -0.0009205915725376436, -0.0022017371332629975, 0.0034127731540636273], [0.0003504274269077562, 0.0013797376522671915, -5.9728912871347546e-05, 0.002605493155835816, -0.0006130286800738752, 0.0012035326847896557, 0.005327497619871188, 0.00027462650880672156, 0.0010017985564928578, 0.004755979646210303, 0.00021737004394288176, -0.004396198214115998, -0.0015131583658461254, -0.0019951023359210418, 0.004138011826031992, -0.0013895621898764752, -0.0003780784784203223, -0.0016271580554969092, -0.0012254762173784116, 0.004339950726288821, 0.00024926717199036174, 0.002424451674086304, -2.20892592457768e-05, 0.0026029706540731824, -0.004054997064703573, 0.0026707799961934084, 0.0028351407755006592, -0.00015487637061167275, 0.0034074189093591225, 0.0009366189430969223, 0.002826052546797802, -0.004350526831204018, -0.0021992334743404823, 0.0001885421853960307, 0.0013222744368729493, -0.0026837131825957696, -0.001067294484645929, -0.0017528251825987137, 9.786516251516799e-05, 0.0052173813129993245, 0.0002627974443544127, 0.0016104442318120534, -0.0020532267966877154, -0.002808071261887693, 0.001949256096646438, -0.0015257893023559509, -0.005022512720628019, 0.0019586053485980285, -0.005328278185919309, 0.002582922057596555, -0.0001842555096843368, -5.994333874438436e-05, 6.403394396696617e-05, 0.002530163620414923, 0.002008476012021245, 0.002084292614355318, -0.0010268601627525693, -0.0011000637175185774, -0.006741552083394139, -0.004250679969701611, 0.001697418209623636, -0.0009691990080199622, -0.003021050254421811, -0.0003510312423345408], [-0.0019855341220891645, 0.0002956369460145472, -1.8719652215900897e-05, 0.0011057703322836525, -0.0008140171014339792, 0.0019132563235971394, 0.004335138585004471, 0.0010190596659757998, 0.0012701742341535828, 0.003086047644371591, 0.00031723324926538496, -0.003314031817029917, -0.0009362849880293451, -0.003011969165489592, 0.00454279219851942, -0.0009028189308370943, 0.00019494670419567021, -0.0017500534138562478, -0.0007480180235132523, 0.005876568616774202, 0.0012025130064478586, 0.0033241389068237974, -0.001373515052574263, 0.001595488932192193, -0.004501481642161354, 0.003093827741292282, 0.0035880796910277026, 0.0004045433822099191, 0.00439002957878234, -0.0018242415100489893, 0.00513445465618299, -0.004757702099986198, -0.0006975957027903588, 0.0002931035456210115, 0.0023342990022661727, -0.0012754065514957475, 0.0002236251388311499, -0.0035787480543562843, 0.00023788714784919761, 0.0058028418269468075, -0.0003542481423516661, 0.0015228016597134979, -0.002739087923149342, -0.0006904694701871902, 0.001526543261047368, -0.002293951538991694, -0.002976816739039181, 0.0013781636514060395, -0.006920647263511553, 0.002476574085095226, -0.0010690353424809833, -0.0007865416862385496, 0.000830616155748013, 0.0023668979689789598, 0.0036177774771961415, 0.002476356999244969, -0.0012671687464393226, -0.0018344701062038454, -0.006448567730696225, -0.004832259703215955, 0.0028166414080381245, -0.0008126035866868172, -0.0028987313807407856, -0.002346353039037865], [4.6639086488179884e-05, 0.0013237246378428767, -5.813620844373703e-05, 0.002576652636904216, -0.0006840707051124288, 0.0013872893031263741, 0.005559990282220626, 0.00039840872551597856, 0.0011094520385041165, 0.004853357845297587, 0.0002465787523654916, -0.004551052054206303, -0.0015377366550026058, -0.002277282927013509, 0.004483788752608927, -0.001418176824109067, -0.000323951601551585, -0.001758028029849925, -0.0012439398974283483, 0.0048588739232135756, 0.0004006216534738654, 0.002720141121614109, -0.00021353621683138998, 0.002643124633324168, -0.004400838642482043, 0.002916688684348629, 0.0031388812598763713, -8.707843538707933e-05, 0.0037833870415540987, 0.0006140481678230786, 0.003347735027174642, -0.004711477087740881, -0.0021417607296197196, 0.00021639846197202733, 0.001556800915400191, -0.002673179585046493, -0.0009604055954205137, -0.002131781140301923, 0.0001243737882466774, 0.0056639042229961545, 0.0001944363631201131, 0.0017105621561789353, -0.0022929518449829023, -0.0027065483234303, 0.0020259435888614064, -0.0017402562541777836, -0.005085695969098932, 0.0020137812173742727, -0.0059240359995659225, 0.0027483052780862363, -0.0003214502176622025, -0.00016623120997883133, 0.00017622600667424504, 0.0026838653208914125, 0.002374840273506669, 0.0022849016834608064, -0.00113231928918485, -0.0012800650853528864, -0.007171044747178764, -0.004629167019459229, 0.00197319920132203, -0.0010148588381364695, -0.0032147772582719098, -0.0006559248045642209], [-0.003373701790813299, -0.0003616145195500824, 6.22337879569035e-06, 0.00018909145423524402, -0.0009265790750168131, 0.0023210089769983575, 0.0036900460914574005, 0.0014573156309737336, 0.0014185166388492197, 0.002045498824263312, 0.00037409346107030405, -0.002625672600882711, -0.0005782180012628955, -0.0035932879227567886, 0.004738440996632864, -0.0005994896397769655, 0.0005385959596594976, -0.001805489309232363, -0.00045194610142292117, 0.006740847964055487, 0.0017647941301517978, 0.003831419615179025, -0.002174208898369893, 0.0009705664630037762, -0.004722734322674172, 0.0033159914801668727, 0.0040039978117407315, 0.000737742668968081, 0.004935944743870562, -0.0034704958602820796, 0.0064723238987588, -0.004952497886020819, 0.00021587406403776686, 0.0003530563930049239, 0.0029199423163928863, -0.0004120696063222843, 0.001000108126784208, -0.004642148989672776, 0.00031982551549701333, 0.0060940303374789765, -0.0007227536696634226, 0.0014536397914508888, -0.003123612795026289, 0.0005945649355814639, 0.001255177314750422, -0.002732892357917515, -0.0017107193387638703, 0.0010132188460641068, -0.007807399966833563, 0.002385927936180113, -0.0015914348588110545, -0.0012165232960207816, 0.0012842506862369082, 0.0022430833704647967, 0.004550062927292087, 0.0026864294146267368, -0.001398609054808082, -0.0022579574924698983, -0.006202843475883949, -0.005131484902020983, 0.0034618052878469187, -0.0007094330748965925, -0.002793935211550582, -0.00352513816499354], [-0.001690460427771091, 0.0005724069244327906, -3.005510017530003e-05, 0.0015687000135312748, -0.0008625210851989731, 0.001974106474917767, 0.00505544379184981, 0.0009694051871028314, 0.0013559916436465234, 0.003814605297954986, 0.0003313126335022598, -0.003937140160423172, -0.00117305310648064, -0.0031302554596298435, 0.004974037416586171, -0.0011155558744483038, 8.900325213943772e-05, -0.0019235854095237487, -0.0009408909251822498, 0.006207549204242505, 0.001127167110985706, 0.0035045338087989777, -0.0012286347799929508, 0.0020044335161873415, -0.004918640385301083, 0.003354515762485081, 0.003831664853543959, 0.00032572687360549424, 0.00467430818072656, -0.0014154731772742842, 0.005207320607956558, -0.005213101093249971, -0.0011140606857607165, 0.0003033585194806394, 0.002375814938729502, -0.0017373506435578515, -3.980996056747265e-05, -0.003580945548626028, 0.00023385642995703304, 0.006338382396388315, -0.0002567469856713079, 0.0017173796473339263, -0.002900159112675185, -0.0012440728516902482, 0.0017965965987709125, -0.002385449817094605, -0.003776984920896845, 0.0016664966770809514, -0.00735909140555455, 0.0027849166970532776, -0.0009936890104204842, -0.0007141685772919836, 0.0007543514275210791, 0.0026753881400283707, 0.0036729754798473587, 0.002673045545088544, -0.001358927037916598, -0.0018807406357560425, -0.007255038011935327, -0.005257163061560529, 0.0028895625630176334, -0.0009410330226593605, -0.0032591509880908432, -0.0021690253073506334], [-0.0007264362220118459, 0.001085152126240578, -4.985582151794333e-05, 0.0023154337367072065, -0.0008141093782017455, 0.0017515489128113629, 0.005743032006405033, 0.0006829277605062978, 0.0013011867735327333, 0.004745676227303567, 0.00030257573299590597, -0.004611063745975105, -0.001487720687463989, -0.002825918683849703, 0.005032429485028632, -0.0013871175885071174, -0.00016316203191381895, -0.0019612238537875994, -0.0011998854152695906, 0.005818804188575887, 0.0007548354210929755, 0.003270664659519893, -0.0006829883033576028, 0.0025518544314929517, -0.004955700260888932, 0.0033267370060594188, 0.0036792259200340194, 9.105106733936308e-05, 0.004459663299991564, -0.00024804648787995034, 0.004425000782092966, -0.005281934550930852, -0.0018397561956779798, 0.00027117274936415056, 0.0020373117476744605, -0.0024512941115101172, -0.0006194652487400286, -0.002936228936126021, 0.0001824534248184313, 0.006381619140475661, 7.040722262422945e-06, 0.0018393114407257306, -0.0027328792627150118, -0.0022516981750009286, 0.002072300762624431, -0.0021565487633125914, -0.0048744134489443446, 0.002006525247505209, -0.007000853271416658, 0.0029666320158490546, -0.0006455703427848073, -0.00042338085766653903, 0.000447604520978955, 0.002877301545137389, 0.0031296377139351877, 0.0026263137748146087, -0.0013168246799333584, -0.0016426401003616022, -0.007735559625620679, -0.005250065564888294, 0.0025278255632289076, -0.0010564354582724472, -0.0034708528363226704, -0.001380498460165543], [0.001433747001876171, 0.00209695639739971, -8.81877263737617e-05, 0.003720456420759769, -0.0006331495589978111, 0.001105220334347219, 0.006700206002258724, -2.5420045637569494e-06, 0.001060952095060526, 0.006324303532206151, 0.00021199886923130206, -0.005644083003649729, -0.0020320634824694144, -0.0019019464032513733, 0.004690125120452251, -0.0018472730869984787, -0.0006952952390653456, -0.0018601244345502874, -0.0016502139491051293, 0.004432666302753966, -0.00012368862674219726, 0.002458194241257064, 0.0005650299621141726, 0.0035022204147186933, -0.004574244573383563, 0.0029563726258553607, 0.0030054249589673, -0.00042681407447504166, 0.0035780996482738057, 0.00230904636580474, 0.002314493387812798, -0.004939038741244688, -0.0032434496726357503, 0.00017603681338216432, 0.0011126812780074735, -0.003772480588610005, -0.0018199064933911056, -0.0012631591586256116, 5.387435440473921e-05, 0.005880667837734448, 0.0005789524384362592, 0.0019325389386133133, -0.0021150694784262307, -0.0042289430996431294, 0.0024775851504661036, -0.001458703185689039, -0.0068021315063122745, 0.0025575604516602985, -0.005570759513231009, 0.0030845514289736275, 0.0001702137431999096, 0.00024725357885370093, -0.0002599281115071675, 0.0030473882401217908, 0.00165859046869343, 0.002280093687739467, -0.0011027040770295242, -0.0009727253686238147, -0.008057568714244389, -0.004745327155624051, 0.0015070462532228701, -0.0012084585988364743, -0.0036068639652549034, 0.000459718549241726], [-0.0035030279259805675, -0.0002505025402807241, 9.606011838288026e-07, 0.0004407738753068894, -0.001028140630654889, 0.002544494053565393, 0.004363246511853222, 0.0015528457268968563, 0.0015798932803301581, 0.0025865366176645935, 0.0004122918732088892, -0.003161061496407289, -0.0007468700805414733, -0.003951554437495584, 0.005351213415759815, -0.0007576544707751775, 0.0005292474165055803, -0.0020436717159110947, -0.0005877495441674677, 0.007468549579162756, 0.0018727235316039457, 0.004241095669026499, -0.0022806391692259402, 0.0012595289220125685, -0.0053270229931956245, 0.0037238606150133734, 0.00446019898286928, 0.0007587372130641484, 0.005490170754322997, -0.0035498866257619452, 0.007046171488059708, -0.00559533405238558, 2.146013920788095e-05, 0.0003875606694604822, 0.0031832357364607405, -0.0006817394467085329, 0.0009487396936029589, -0.005028207229113153, 0.000344291333871479, 0.006872381411075594, -0.0007329798182253917, 0.0016733752958862022, -0.0034647445678527545, 0.0003616395118328274, 0.0014969333321055527, -0.0030061562552852355, -0.0022605036227490195, 0.0012442301188558887, -0.008678327734607444, 0.002740968415664016, -0.0016849886776795298, -0.0012805043184086695, 0.0013518638681183435, 0.002586354067296812, 0.004955504942127484, 0.003009466711650595, -0.0015613635863804946, -0.0024687814696963896, -0.007128338120589103, -0.005773616356351948, 0.0037860417101231994, -0.0008337345328684448, -0.0032093575776604836, -0.0037270488976629125], [-0.005259889669734584, -0.0012204735937246358, 3.861001891479332e-05, -0.0009895874011011706, -0.0010975907692258053, 0.002911845195964953, 0.002958987141132805, 0.0020636518851229967, 0.0016493498729001702, 0.0007582001666201095, 0.0004578796182056919, -0.0018092859250561605, -0.00013176426644932298, -0.004443488392324247, 0.005122223189725399, -0.00022431933042765215, 0.0009973275725510178, -0.0019270380975542755, -8.206677959931475e-05, 0.00804358106532149, 0.0025398184856615445, 0.004592586703917938, -0.0032684755965473166, 0.00019031818729312285, -0.005139149924867088, 0.0036946636375668534, 0.004651942850098988, 0.00118848767882828, 0.005777567755489098, -0.0056926862025095904, 0.00837927929198811, -0.005341100668429891, 0.0014016123901798502, 0.00044025472655725463, 0.0037570987144307346, 0.0006915479040427974, 0.0020306223525729966, -0.006143987569166441, 0.00043449922699103656, 0.00663870895806089, -0.0012186827478587255, 0.0014045333420388542, -0.0037066553290357493, 0.0022706641258138055, 0.000939429140717486, -0.003375404262919632, -0.0001228575740829224, 0.0005699173497623911, -0.00916866598762002, 0.002334867523026473, -0.0023101549646388775, -0.0018055110857397448, 0.0019056605311737228, 0.002145233139510643, 0.005880015319837914, 0.0030320673904497184, -0.00160706208979273, -0.0028673710222436757, -0.006057098268009309, -0.005659912509713856, 0.004390825395329908, -0.000595813902899862, -0.0027358880064483632, -0.005145093765593713], [-0.007654814476435937, -0.0028374131762547734, 0.00010290535630162459, -0.0035158121457662473, -0.0010365346375922101, 0.0030954291329174798, -0.00020914763992342734, 0.0026664412862772735, 0.0014917242900001602, -0.002825040259727952, 0.00046376628472304544, 0.0010585516758352064, 0.0010521568394274963, -0.004594087289417401, 0.0037934521477447644, 0.0008214814332184797, 0.0017061351769444924, -0.0013696068878402093, 0.0008866467879561394, 0.007720834108061857, 0.003354213782778406, 0.004452036471601597, -0.0045606429069613, -0.0018608605845068299, -0.0038850142120749396, 0.002992836298411831, 0.004199520350450808, 0.0017914964252562359, 0.005308633469356158, -0.008740213021715603, 0.00942844802207408, -0.003926376553863775, 0.003760958158969687, 0.00046263787605911697, 0.00418246571126941, 0.0031622298082673297, 0.0037169558293718217, -0.007174278091506195, 0.0005286877161898467, 0.0050356510058033, -0.0019220021818821473, 0.0006513082483373153, -0.0035143762267980812, 0.005476001218645573, -0.0002771596428665901, -0.003481425230834905, 0.003932914154990115, -0.000802437591652267, -0.008489143601657673, 0.0011597523000100938, -0.0030856215232145236, -0.0024802863148964834, 0.002617238937455704, 0.0009372206488577369, 0.006595538680374023, 0.002543977939323936, -0.0014120013066954893, -0.003117694456745798, -0.0029751505962363613, -0.004454596542835292, 0.004763617916459521, -4.25057575409286e-05, -0.0013634355644637287, -0.00692068163045786], [-0.005845391183383426, -0.0014767512729557753, 4.8208808186167264e-05, -0.0013352723031471124, -0.0011561318051165105, 0.003106363132671578, 0.0027759880207585824, 0.0022551450963683344, 0.001729844304591957, 0.00039682498772801114, 0.0004858592623092443, -0.00159178483484452, -5.280889171720344e-06, -0.004725623090774342, 0.005276974872246486, -0.00011902959574792205, 0.001137246707094273, -0.0019787290419495097, 2.296075331120742e-05, 0.00848674270389571, 0.0027837256672946994, 0.004850577325522038, -0.0036100599586488496, -3.108273356283892e-05, -0.005303380337184271, 0.0038354051206060035, 0.004878084928666262, 0.001327803862962708, 0.0060689776266310965, -0.006378055817169083, 0.008998139851890767, -0.005499154647545902, 0.001752937587764222, 0.0004690549811631335, 0.004029470257562276, 0.0010131527016033993, 0.0023430982192648516, -0.006627374972578593, 0.0004711041313904246, 0.006852792085396135, -0.0013711825486347078, 0.0014028405649482896, -0.0039059319713004095, 0.0027698236669034555, 0.0008574145770661913, -0.003588771346518233, 0.00033003406962534747, 0.0004481868694528041, -0.009638452533575188, 0.002340794384964355, -0.0025359457906094125, -0.001989775113674243, 0.0021000744476415427, 0.0021361157174052624, 0.006311939751059203, 0.0031575396816127706, -0.001680786256026506, -0.0030668092764470525, -0.006068675607577553, -0.005860745155852997, 0.00469503178185481, -0.0005685676563126562, -0.0027433425827921975, -0.0056534700056452844], [-0.008020267117363459, -0.0029596476345898396, 0.00010723592043386416, -0.0036577900396638193, -0.001093010740692554, 0.00325744732230018, -0.0001628491985629379, 0.0027979397921839844, 0.0015742670284522786, -0.0029109447813649015, 0.0004884324873197811, 0.0010630732597003824, 0.0010868833461474875, -0.004836757603895772, 0.004020190970652427, 0.0008463914848891383, 0.0017844138572232057, -0.0014528790234916882, 0.0009164361492536544, 0.00813911231956324, 0.0035186124435331277, 0.004692400354390936, -0.004780818489690101, -0.0019230533980317416, -0.004115290105766326, 0.0031654357926057903, 0.00443205300129353, 0.0018762540526706297, 0.005600711103964442, -0.00915180605409005, 0.009913055016399205, -0.004161774997737542, 0.003919058220437579, 0.00048694455363885135, 0.004398164112622239, 0.0032863279626539556, 0.0038849139709580768, -0.007538816621937239, 0.0005552200154149289, 0.005333719930962644, -0.002011911378827279, 0.0006997627827742676, -0.0037055915145627854, 0.005710367257755087, -0.0002698955540868052, -0.0036654691652105824, 0.004069426144660521, -0.0008204066338727739, -0.008954934538505698, 0.0012430195275493661, -0.0032363789740505705, -0.002600535152623692, 0.0027441357531668943, 0.00100919767256218, 0.006934872634453596, 0.002688723542386565, -0.0014909645658343952, -0.0032796913269631605, -0.0031899811389026365, -0.004714412198259258, 0.005011313414590632, -5.481338473202852e-05, -0.0014611626627705902, -0.007258153993987425], [-0.00450463687524619, -0.0005787414097203601, 1.2531365637937644e-05, 6.489804417459215e-05, -0.0011865060926747684, 0.002995833419660132, 0.004518958305739943, 0.0019153981640891327, 0.0018119203239158517, 0.0023761688072801088, 0.00048118848062539714, -0.0031722312258964493, -0.0006596333148567108, -0.00462860157941112, 0.005996011235649953, -0.000696709420231386, 0.0007421628757741967, -0.002281056629007985, -0.000512526180775833, 0.008640374909395883, 0.002325479783462953, 0.004914113071713972, -0.00288533333590233, 0.001102719788669984, -0.005981087812488856, 0.004212126703177363, 0.005113916098028726, 0.0009906405533774245, 0.006310461483257597, -0.004675046640648079, 0.008392005662683158, -0.006265050285334843, 0.00044378507211373223, 0.0004553154039523413, 0.0037826115512822694, -0.0003553788767731916, 0.0014042065427838943, -0.006038590020061841, 0.0004176708784525061, 0.007718833890073111, -0.0009784497557200464, 0.0018150655962187064, -0.004000814233270959, 0.0009901152488457038, 0.001527337338913105, -0.0035197045628379492, -0.001912603735188496, 0.0012053971424189152, -0.00998591963528656, 0.002983467493223662, -0.0020999390230487603, -0.0016110147523981742, 0.0017006507957228222, 0.0027975685563372057, 0.005898050557095073, 0.0034181028811915595, -0.0017836962651267027, -0.0029195071884180433, -0.007754405141177803, -0.0065098436392928725, 0.00447529033644657, -0.0008727295161766667, -0.003493912263488669, -0.004655590673831269], [-0.006069863849844955, -0.0014538137191990837, 4.655404203854071e-05, -0.0012307686574303367, -0.0012426187269774316, 0.0033113788174153344, 0.0032214789941216976, 0.0023670259159921676, 0.0018644652871692112, 0.0007069004918023999, 0.0005197220573161082, -0.0019299747818265654, -9.884134659202163e-05, -0.005047636377439102, 0.00575438373957073, -0.0002097548812833494, 0.0011618028100407055, -0.002162402839662121, -5.16652670121759e-05, 0.009111737926399882, 0.0029162952361937258, 0.0052043352525220675, -0.0037634045446148724, 0.00012817115268209242, -0.005776780155100454, 0.004161619312637009, 0.005258333989392227, 0.001374150411711333, 0.006534663358926914, -0.006588794622592419, 0.00955128091289301, -0.00599902603323558, 0.0016910773264264007, 0.0005004320962634736, 0.004280672872340294, 0.0008902630058119448, 0.00237590635432829, -0.007014506524021316, 0.0004969741650078313, 0.007463122368258555, -0.001412698284750721, 0.0015612387161854325, -0.00419702196963898, 0.002713218146614874, 0.0010137498978020167, -0.003833974394793074, 3.411812046472465e-05, 0.0005878705758126497, -0.010372898561977855, 0.0025986666290808264, -0.0026540737298673257, -0.0020772413833743926, 0.0021924365996727436, 0.0023821167066603046, 0.006701561256427639, 0.0034190389489435202, -0.0018148878230939613, -0.003263777348110871, -0.006740012339114815, -0.006369680366740554, 0.004997394746310819, -0.0006522884934661586, -0.0030451875756839536, -0.0059131318662928615], [-0.008683522602952663, -0.0032423030814918066, 0.0001177724183777083, -0.004034408039417643, -0.001163371579444013, 0.003486036971353986, -0.0003375767021074525, 0.0030172929452643715, 0.0016720056082622896, -0.0032919707070250713, 0.0005215892910456483, 0.0012828271945494111, 0.001221190111670742, -0.005169868236540879, 0.0042219036507705615, 0.0009573824915826337, 0.0019410766824233979, -0.0015217852957168287, 0.0010281534774012858, 0.008669873682389329, 0.0037973776092925238, 0.0050007506504050276, -0.005169179025877263, -0.002158434028793779, -0.004327257467789203, 0.0033420660477603806, 0.004706770075485922, 0.0020336249648596687, 0.0059531798231405465, -0.009924905790271329, 0.010634053723219598, -0.0043685675001202086, 0.004304622730880314, 0.0005208540492919242, 0.004715978380843876, 0.003635089780421613, 0.004233391092039832, -0.00809914559306351, 0.0005974337097397089, 0.005609602956197202, -0.0021835922269998736, 0.0007078922402044385, -0.0039448938997771734, 0.0062601499688627535, -0.0003509395654435311, -0.003917493251627368, 0.004552799892216879, -0.0009465308177723482, -0.009522125777393822, 0.001265879762188314, -0.003494148422646304, -0.002810331903585027, 0.002965493745449498, 0.0010146301994596186, 0.007438308053324929, 0.002844338618168338, -0.0015811649503936715, -0.0035132271746013085, -0.003245224001249223, -0.004969200856378442, 0.0053676509743053455, -2.9897388284092397e-05, -0.0014884942573664167, -0.007838132818910422], [-0.006825491572648177, -0.0018200728773387805, 6.0505321403908876e-05, -0.0017463627793965573, -0.0012994012278820504, 0.003524189946746541, 0.0028341901400749867, 0.0026028877327938663, 0.0019379404610053016, 0.00010904920872011281, 0.0005490514162329394, -0.0015257281009364266, 0.00010602356709011468, -0.005349079453496913, 0.005831578358721851, -3.5453828208406445e-05, 0.001350901736459748, -0.0021810935916706793, 0.00011754988184003373, 0.00955029692148739, 0.0032196266062179666, 0.005462603026245573, -0.00419768084695489, -0.00022910761575153078, -0.0058684475668344385, 0.004263467906190077, 0.0054641573058307885, 0.0015560175315250558, 0.0068070140641780085, -0.007488554147396728, 0.010257389036179867, -0.006074270636928315, 0.002202087246868468, 0.000531641160228488, 0.004589170822493058, 0.0013774628906934056, 0.0028046702207426572, -0.007579207455587257, 0.0005407464350980233, 0.007584600260288652, -0.001614476683052532, 0.0015124436694528068, -0.004391284214409896, 0.003430087861765727, 0.0008528743474899034, -0.004061452046082746, 0.0007562100745061522, 0.00037615670115234457, -0.010816734480667198, 0.002531409414584989, -0.0029362215718604255, -0.002310116170921025, 0.002438116079471149, 0.002297232559813496, 0.007193334050493165, 0.0035184314662787238, -0.0018790170764871916, -0.0034858497252763174, -0.006559512249424716, -0.006502283768465241, 0.00533556136416069, -0.0005895289334079112, -0.002967186953535225, -0.0065502464463475536], [-0.009661686059376557, -0.004878365639284787, 0.00018698083195130603, -0.006974457094916558, -0.0006228508570910178, 0.002510899989275117, -0.005782818017621339, 0.002953825251031742, 0.0007722949766919145, -0.008367135450075983, 0.00033773727256491113, 0.0058480730609973145, 0.0028483424179971116, -0.003509788774129467, 0.00031341688004985104, 0.0024398838330113365, 0.0024647416653314005, 2.502251270245043e-05, 0.0023487525194147954, 0.00487429379852366, 0.003815554424481819, 0.0028916744632641557, -0.005516719987944705, -0.004961631008468985, -0.0005107850397349615, 0.000863603356340578, 0.0021587472786624, 0.002336791971162259, 0.0029120466550421665, -0.0115884176511879, 0.008519563379825661, -0.0002543312583619527, 0.006850618414130949, 0.0003662836312386074, 0.0037080551081600816, 0.0066261489762254626, 0.005622465994738662, -0.006895281398102664, 0.0005406147854352029, 0.0007021209554632648, -0.002607310879531187, -0.0008801679465271752, -0.002137983347761269, 0.009565657708439122, -0.0023595558686948024, -0.002645323439898399, 0.009989431658863004, -0.003007293984752429, -0.004781863696082664, -0.00127179851952654, -0.003556773215829654, -0.0029505037589522163, 0.003112609879198844, -0.0014873477758100399, 0.005926998606398222, 0.0009270370323900409, -0.0006494499746830465, -0.0026453229482219973, 0.0033824474606196516, -0.0009995596328680701, 0.004024642176159534, 0.000954185844473521, 0.001479072993164249, -0.008042001859606967], [-0.01003252467132176, -0.004912889065201511, 0.0001874348873199718, -0.006943451876444477, -0.000727462140529343, 0.002771650401397765, -0.0053549734064016665, 0.0031156724547196017, 0.0009326927275063592, -0.008122950193643818, 0.0003798553190110064, 0.005541280967982262, 0.002778659594069574, -0.003913984829645234, 0.0008522945022561653, 0.002368335406805461, 0.00252269020414522, -0.00018050257124496529, 0.0022941206233481454, 0.005634872716633269, 0.004011225395996289, 0.00332381389429935, -0.005756675100383023, -0.004844419553727362, -0.001047606632285828, 0.0012398373019538206, 0.002611525262015587, 0.0024175803003395973, 0.0034698694788294895, -0.01196765287760227, 0.009244623508509955, -0.0008176520260488603, 0.006865872582986344, 0.00040596853475990095, 0.004035344995234669, 0.006570239215206427, 0.005728647494686616, -0.007414249580941653, 0.0005762804745998742, 0.0013947558886283685, -0.002686025390714126, -0.0007135256530577096, -0.0024905888900821865, 0.00962032052708254, -0.0022134898363962616, -0.002952769408998228, 0.009781143204235843, -0.002887885568164083, -0.005663957498762598, -0.0009985156778657643, -0.003733065259809956, -0.003084949793928177, 0.0032545438490765867, -0.0012300296291141478, 0.006436802718555124, 0.001231531361207016, -0.0008077489959344417, -0.002898714392343209, 0.0026718738171865844, -0.001582238378046966, 0.004413173490771384, 0.0008721444975473223, 0.001159071112008657, -0.008432278585530271], [-0.01023008000409725, -0.005027445625960296, 0.00019190995022030062, -0.007115021701988345, -0.0007323729034255168, 0.0028070541855318527, -0.005536218998369231, 0.0031713704807705043, 0.0009358065030786501, -0.00834884845288381, 0.00038393437734448444, 0.005712366864005532, 0.002854256572912925, -0.003959622487340002, 0.0008076217062026354, 0.002434241348593438, 0.002576641357421497, -0.00015997081979201834, 0.002356183871074172, 0.00567893507869079, 0.004084470875594317, 0.0033518032316965265, -0.0058667419317387365, -0.004975700211989493, -0.001007903316518258, 0.001224231165250538, 0.0026197996494179416, 0.002466224608108681, 0.0034861653661029707, -0.012210960731654093, 0.009380231130557127, -0.0007691812849827057, 0.007029964239162682, 0.000410973430894297, 0.004093231047201463, 0.006735805537833955, 0.0058542402902725145, -0.007530582344447791, 0.0005858884196765624, 0.0013445698025239268, -0.002741408863090055, -0.0007509552324809648, -0.0025080738076006213, 0.009846210271144006, -0.0022846793195414497, -0.0029868945982413227, 0.010042769851155835, -0.002972145420803893, -0.005694004288047057, -0.001055749957728314, -0.0038019352426985602, -0.0031432242647516507, 0.003316010212745839, -0.0012909255769178957, 0.006530621846914095, 0.0012244139559579837, -0.0008080972510539211, -0.0029380805063765917, 0.0028225179491337673, -0.0015499019680403393, 0.004472773292008622, 0.000903160384180435, 0.0012258446634280846, -0.008588803580664594], [-0.010112057141943938, -0.005233842712745596, 0.00020133468751911256, -0.0075500670064558, -0.0005842026323260552, 0.0024900918353594763, -0.00659732676537292, 0.0030508646382044276, 0.0006986388902209465, -0.009231272836686644, 0.00032903028819927365, 0.0065662051854873515, 0.0031312386977272208, -0.003447397431330985, -0.00011380673369033627, 0.0026921569284193776, 0.0026103729067022924, 0.00019935494892615697, 0.0025796573987066952, 0.004620554241144661, 0.003952134813169147, 0.002757139584314215, -0.0057502190097091545, -0.005450919864759705, -0.0001008388795816703, 0.0006161347904987894, 0.0019491473521503794, 0.0024531861441113452, 0.0026737146365991126, -0.012183579182951435, 0.008582869154043243, 0.0001980473614534844, 0.007377674716783141, 0.0003618667038630861, 0.003725783965537896, 0.007195197006377244, 0.005976485386721114, -0.007003424928106297, 0.0005533063234680258, 0.00017658206522806597, -0.0027467619192845984, -0.0010892798911914079, -0.0020107553061650815, 0.010273617650903254, -0.0026679919771447217, -0.0025959477094206354, 0.010951306458769622, -0.0033444177547184107, -0.0044189337029569425, -0.0016012046383019087, -0.0036892127326091867, -0.0030702609897780924, 0.0032388619051633674, -0.0018203512567366853, 0.005966523902461674, 0.0007447306020685602, -0.0005678734074995808, -0.0026412792111924805, 0.004244906454782165, -0.0005896729294028984, 0.0040159598082810406, 0.0010981812790723084, 0.001863993188534964, -0.008348435549805609], [-0.003427740149907291, -0.003500430145539224, 0.00014423845758790876, -0.005935692294427845, 0.0007142244568805778, -0.0010139617380388118, -0.009581448289607407, 0.0004862565168064676, -0.0012411837778399796, -0.00951950926017599, -0.0002180220259785826, 0.008230880599466037, 0.003084860423742363, 0.0018775340716724682, -0.005993858178597449, 0.0027798968905854986, 0.0012991764793718007, 0.0024016068955510774, 0.002511006367410928, -0.004916270128840769, 0.0007833038519291797, -0.0026955501370889666, -0.0016303066279762172, -0.005325290477953264, 0.005812227995828868, -0.0036692625618591187, -0.0035207170900829993, 0.0009322098891526494, -0.004135665807919613, -0.004870953994219982, -0.0015901176042851207, 0.0063243441820653255, 0.005300629150600605, -0.00016700289468331989, -0.0008278312547819022, 0.0059457943953417774, 0.0032650082526228166, 0.000500638740362082, 1.8957265983604606e-05, -0.007464792353519628, -0.001172533676006277, -0.0026347668677345563, 0.0023765325059836267, 0.007014768421592464, -0.0035791720452043032, 0.001447586404624808, 0.010400643753636741, -0.0037881639515156104, 0.006398272379300196, -0.004183631971144735, -0.0008009567721872028, -0.0008011223095704781, 0.000843964502502158, -0.004170976785954052, -0.0011686343567285263, -0.002787234202283251, 0.001315084324514114, 0.0008212093945823586, 0.01093846915792204, 0.005952816875351883, -0.0012843633316794376, 0.0017136019680739584, 0.004890732362595891, -0.0019074796614527978], [-0.010978775412180904, -0.005245940777236675, 0.00019937659309187118, -0.007343449272721402, -0.0008649446292888694, 0.0031733382313826994, -0.0053055354934919835, 0.0034509013078703613, 0.0011322428074207927, -0.008406663213243392, 0.00044056197330008334, 0.005610578197797712, 0.0028879805658461096, -0.00451310792111064, 0.0013822676091726697, 0.0024507417905883693, 0.0027293472318664948, -0.00037373185217765123, 0.0023869478126064374, 0.006655734144785675, 0.004431560055053639, 0.003911364063032042, -0.006323708154969464, -0.005038803003244329, -0.0015877822071195832, 0.001649550056481713, 0.0031735115367246365, 0.0026380047134584384, 0.004177780129738657, -0.01304047940801182, 0.010456244660803464, -0.001367151561824509, 0.007302084487562483, 0.00046612682142985835, 0.004573792682348468, 0.0069251918733998245, 0.006175417639482577, -0.008330565382944074, 0.0006433625141628654, 0.0020943704916681263, -0.002921138915322882, -0.0006097911320754541, -0.0029563665074880093, 0.010261029266977376, -0.0022203328192098313, -0.0034069849123353375, 0.010198750631684957, -0.0029598689286643577, -0.006794284407463384, -0.0008178318016738159, -0.004119103329567996, -0.0033940069180390634, 0.003580677066470856, -0.001077745218829225, 0.0072848220117339695, 0.001577163966176432, -0.000997747263684561, -0.003301704059188344, 0.0022067243208871356, -0.0021959626041952213, 0.005029148365477796, 0.0008531405712023341, 0.0009468738256234945, -0.009297234919088], [-0.008886996111473101, -0.0027722819680063415, 9.649742064789058e-05, -0.0030610426775299804, -0.0014791628221454275, 0.004155389883220688, 0.001977650447613909, 0.0032612899778655642, 0.002178652629016284, -0.0013479530189883138, 0.0006380440578902793, -0.0005864253562431083, 0.0006098227427758162, -0.006254445336781468, 0.006204387505783336, 0.0003892134457612354, 0.001855516545855608, -0.002295658775734212, 0.0005346269897097932, 0.010923341630838872, 0.004062329836480407, 0.006266085635115667, -0.005391159420364899, -0.001109116080357996, -0.006277776048267352, 0.004646961416014493, 0.00613957626990608, 0.0020494464739538748, 0.007687372583079709, -0.009923095797598891, 0.01230634908081746, -0.006449983567533232, 0.0035199663555228757, 0.0006246755574286317, 0.005487762884781613, 0.0026111259837517968, 0.003940673726005588, -0.009198122841025036, 0.0006647582357966756, 0.008120968704999499, -0.002158392328651767, 0.0014410281667033551, -0.0050045663869624935, 0.005289642891951391, 0.000486827879965664, -0.004745453388853829, 0.0025440467818541902, -0.0001291398666433388, -0.012242680141619234, 0.002447086030922214, -0.003718223537432218, -0.002951972139141486, 0.00311529557731154, 0.002162451317483675, 0.008621907764473155, 0.0038723874011139026, -0.0020950372193365794, -0.0041384620143742725, -0.0063258152292330954, -0.007031636476915401, 0.006330209441090756, -0.0004548430543069628, -0.002870386724079875, -0.008313548080868255], [-0.009196937901160841, -0.005502400431725441, 0.00021578631067669304, -0.008318473039782996, -0.00013911343064107768, 0.0014658866105175688, -0.009158284548963174, 0.0025391955494062273, -4.854810246943731e-08, -0.011143359569638883, 0.0001575628718021435, 0.008553844218692099, 0.0037178409108572816, -0.0018257500669799133, -0.0026639551833390826, 0.003251369568804512, 0.0025522766250051687, 0.0011848202979540003, 0.0030498384628666556, 0.001415269811026336, 0.0033552648624243023, 0.0009468554460898758, -0.005092736824919062, -0.006452786507172697, 0.0024219260914314232, -0.0011070041942791025, -2.5034607609865523e-05, 0.0022744477595124913, 0.0002639670636984963, -0.011399589474736637, 0.005871596893999518, 0.002870385957191036, 0.007913763802857717, 0.0002045775076720522, 0.0024896861583151727, 0.008051780507804534, 0.005968383338601569, -0.005133695737112323, 0.00043074442097030044, -0.0030745894679208327, -0.0026019957029959928, -0.001964756461901305, -0.0005139564825286052, 0.010862559196127943, -0.003576558300030579, -0.001360300109521991, 0.01283589433048213, -0.004183041157573475, -0.0006240992809327997, -0.003021672665199709, -0.003162045013893201, -0.002689384946421396, 0.0028365755804464457, -0.0031836072754527255, 0.004054549213490623, -0.0006295633495242862, 0.00013169536008266974, -0.0016642306977501268, 0.007945042913680367, 0.002109019274588091, 0.0025150271276903396, 0.0015755040337642032, 0.0035263951566074053, -0.007196322821439313], [-0.009535037986762685, -0.005639052126272569, 0.00022083012201317627, -0.008495916646851549, -0.00017890911902331523, 0.0015904138357205502, -0.009215721378952265, 0.0026533722735031092, 5.6139598389839916e-05, -0.011310070565314528, 0.00017588407341630514, 0.008640004486369797, 0.0037775908754550036, -0.002008674233950658, -0.0025354838233627186, 0.003299906488390223, 0.0026303525234448745, 0.0011396431623433914, 0.0030997393892104497, 0.0017137471128071265, 0.0034997638003055912, 0.0011196729911866709, -0.005292080143090832, -0.006557797533252723, 0.0022886961755402098, -0.0010002641865069365, 0.00013301221318674997, 0.002354235502593956, 0.000465354470119236, -0.011790492373405789, 0.006258509325655782, 0.0027380248410013527, 0.00809825123036725, 0.00022311061965064522, 0.002660698684868377, 0.008214462643115403, 0.006140686156864128, -0.005431707848218944, 0.0004529892900298851, -0.002901550607709598, -0.00268847165902816, -0.0019508558306979456, -0.0006491128326286063, 0.011127603765081236, -0.003606352103983543, -0.001498795185884645, 0.013053494278983911, -0.0042359023824119334, -0.0009472349851213837, -0.0029943399684537603, -0.003295381368510493, -0.0027973625485779633, 0.002950508246909465, -0.003165532912271425, 0.00432492242342101, -0.0005371467665997788, 7.922250979612797e-05, -0.0017906698997452494, 0.007875972264832675, 0.0019526417858605413, 0.0027080668998592313, 0.0015824286240327693, 0.0034941216157900056, -0.007495944427386684], [-0.01053587042221322, -0.005868569673255236, 0.00022805741464043634, -0.008678911901145652, -0.0003891865744622773, 0.0021473855021512194, -0.008641166900223644, 0.0030468963874663814, 0.0003722917774319906, -0.01115577240667081, 0.0002635250091774536, 0.00828631428819841, 0.003749343140922546, -0.002858946196610007, -0.0015514983189060644, 0.003254292780495377, 0.0028194699951965803, 0.0007693098258172708, 0.0030815551801663273, 0.0032544254276157757, 0.003983904422614162, 0.0019992315661712767, -0.005914494169741345, -0.006516125914667315, 0.0013016608035626594, -0.00029116988742725666, 0.0010247301726807267, 0.0025802185914332067, 0.0015726029730191496, -0.012872512595302548, 0.007859950396848099, 0.001711918209060895, 0.008360550187055097, 0.0003073353449005167, 0.0033788673979243994, 0.008340543365276886, 0.006525120498935981, -0.0066052753531173096, 0.000535928846812467, -0.0016265504073317274, -0.002919979133105571, -0.0016800503006424324, -0.001359201768095273, 0.011554112935622175, -0.003423402490613388, -0.002144708129073699, 0.013019618877989915, -0.004123293975647169, -0.00270420927155097, -0.0025443550740380087, -0.003735654858587915, -0.0031412846713366922, 0.003313508898142861, -0.002751767416671806, 0.005448759074966986, 4.455510053974926e-05, -0.00022892972699371984, -0.002338957072385062, 0.006708538891162437, 0.0008660368546198186, 0.003547689785344358, 0.0014669538984599592, 0.002966861939696356, -0.008476381827691067], [-0.011367014859379885, -0.0059985781865062185, 0.00023139195395082912, -0.00871236433446923, -0.0005958335802109113, 0.002675144266045359, -0.00790620240199852, 0.0033929322075086305, 0.0006867214174589496, -0.010803325296122764, 0.00034787455357097137, 0.007781803755646974, 0.003654858874498256, -0.0036719802392690504, -0.0005253057213678496, 0.0031508671140045314, 0.002961979840307992, 0.0003798375826077193, 0.0030090082859065797, 0.0047614323451569485, 0.004405490007167368, 0.002857087239100006, -0.0064425728854388825, -0.00635945225873611, 0.00027675694449641973, 0.00043382708385061863, 0.0019120342570765382, 0.002764354359169871, 0.0026691019196830325, -0.013745068889073418, 0.00934781097340704, 0.0006401478028060199, 0.008480101028158778, 0.00038744774781448164, 0.004048662220222681, 0.008322153920928117, 0.0068008801402842075, -0.007680771689465895, 0.000610724361696227, -0.0003035966803562692, -0.003103760057180992, -0.0013756357825385908, -0.002056242009688084, 0.011784321392606083, -0.0031775825776037174, -0.0027628088212435795, 0.012756714015246796, -0.003936601693384003, -0.004440461241492532, -0.0020428642869261136, -0.004117062819425539, -0.0034353069164151447, 0.003623877247039427, -0.002283406878288854, 0.00649406626894993, 0.0006343282868653159, -0.0005377538875952141, -0.002854536797979204, 0.005405592586344264, -0.0002523061272491028, 0.0043378241894506874, 0.0013239744354421206, 0.0023795046410776937, -0.009322967944974178], [-0.00923090096669286, -0.005767803491785894, 0.00022737173006868286, -0.008828545406840879, -1.011291451936858e-05, 0.0012075108203891427, -0.010234902398009954, 0.002470784539426066, -0.00020988343790364464, -0.012091756099237003, 0.00011135725870605541, 0.00943798547534933, 0.004018842330352653, -0.0014000302727218805, -0.00351927325450527, 0.003528482984725277, 0.002620524048916076, 0.0015205616164538905, 0.0032934468722639544, 0.0005001620409701946, 0.0032886662350736866, 0.0004349735777178727, -0.005066272154145459, -0.006970330665021408, 0.0032608938574777615, -0.0016616745479017428, -0.0006187712385185343, 0.0022971349755587203, -0.00045087726782074917, -0.011546890191288317, 0.005254478840832118, 0.0037693318913778143, 0.008340477088973442, 0.00016420853006203658, 0.0022020488140337777, 0.008579380304459136, 0.006166344404212569, -0.004744538298129679, 0.00040839869108926446, -0.004154229699375155, -0.002645883351113672, -0.0022936525278001887, -8.16870645558163e-05, 0.011404154085350884, -0.003969509868024857, -0.001034877731649081, 0.013832860777672817, -0.004575350378222614, 0.0004946293773114027, -0.003549730251027924, -0.003109892159325238, -0.002665297105375199, 0.002810999767648248, -0.0036999197816693524, 0.0036164709972158716, -0.0010634362974040051, 0.0003462151056099993, -0.0014266768408006032, 0.009323048749277505, 0.0029903162228451523, 0.0021487041150352504, 0.0017717550493135238, 0.004144058089372033, -0.0070919382235475545], [-0.00527957128307344, -0.004560205555152717, 0.00018556814522100048, -0.007516467357333408, 0.0006607689736723879, -0.0006669766253585504, -0.011220626786398522, 0.0010128135238998603, -0.0011999690907313796, -0.011585019338357856, -0.00017710432596619238, 0.009785728949549091, 0.0037770209814643988, 0.0014249516150526974, -0.006364149136655807, 0.003382486686660365, 0.0018015287566037692, 0.002575073348438266, 0.0030794535035865577, -0.004450490970103457, 0.001474414871914779, -0.0024036458632733736, -0.002664638624114527, -0.006527582453357098, 0.006136822281004567, -0.003783992903969324, -0.003409129599527015, 0.001387369752502493, -0.003941884275920806, -0.007145627194702972, -0.00028235401349366567, 0.006727779165090892, 0.006815998029322776, -0.00011773122151174063, -0.0002682094761884389, 0.007469233160094874, 0.004432198558928217, -0.0006132253726087214, 0.0001103915375320098, -0.00787399298886406, -0.001689718871245508, -0.0029671864931850368, 0.002187748601877783, 0.009103455676831003, -0.00422471774941013, 0.0011087659757451135, 0.012798636622530456, -0.004556393008696656, 0.006052368102960966, -0.004690504065123896, -0.0014501841721457952, -0.0013493215666999475, 0.0014222001539671949, -0.004712879842913062, -0.0002632315187385967, -0.0028292160578603813, 0.001299552235688257, 0.00043823391316721725, 0.012273266419119614, 0.006205863356292641, -0.000704161975477433, 0.0019934216986156553, 0.005481994019501687, -0.003382209469331403], [-0.007981462561875796, -0.005530752387472262, 0.000220527218974743, -0.008696868038466466, 0.0002785441411007555, 0.0004589330473063939, -0.011162699852214538, 0.001963805218696392, -0.0006469298279725885, -0.012467540139113746, -7.499255429368942e-06, 0.010051648829659596, 0.004112102377410863, -0.0002512442850056908, -0.004918368913872894, 0.003638947862523276, 0.00239630521050815, 0.0020497829261699155, 0.0033630549096300044, -0.0016090202425720795, 0.0026683188248113206, -0.0007671132921390339, -0.004280111401548551, -0.007122026600653259, 0.004660676544545894, -0.002658061047440067, -0.0018518384650202464, 0.002017902384707866, -0.0019776778140436, -0.010217335930435575, 0.0031262774007934334, 0.005229665398135141, 0.008093269903261521, 5.076008267904201e-05, 0.001245562065348073, 0.008522492326624396, 0.005721932435670428, -0.003197065595173527, 0.000300024637473985, -0.005961608778651833, -0.0023637899526152612, -0.002696659991172569, 0.0008924388269321373, 0.010972941338356761, -0.0042745682075227545, -0.00016180882694099167, 0.014066852795519176, -0.004792012980995926, 0.002914353329184554, -0.004215844643670145, -0.0025473688628419376, -0.0022290770370544553, 0.0023505519470060753, -0.004318326035523989, 0.0021220104673618113, -0.0018767550743587968, 0.0007741220247837625, -0.0006929965257523997, 0.011052745650171494, 0.004523180332401653, 0.0010246898077395051, 0.0019543589516474833, 0.004924355854416582, -0.005841522308062357], [0.010038921318365349, 0.003049473964594699, -0.00010538914939381885, 0.003297139217828241, 0.0017143022780217413, -0.004782426991224559, -0.0025835247351751215, -0.003710089281733309, -0.002531381812747105, 0.0012185760818765217, -0.0007364293920763738, 0.000948202581912187, -0.0005925774697845824, 0.007210097387797563, -0.007291989763720245, -0.00035080253901598787, -0.002076310614345125, 0.0027042899658189824, -0.0005260454765675927, -0.012647700930223573, -0.004615361920230397, -0.007251039056080392, 0.006105131556009766, 0.0010873916780549074, 0.007369710033541797, -0.005433845170111513, -0.007134365346138168, -0.0023103049032084846, -0.00892373729038892, 0.0111740564721616, -0.0141156062661224, 0.007583787787128732, -0.0038429881931485283, -0.0007194299042346442, -0.006298576471260934, -0.002782699597468334, -0.004392494230216076, 0.010527171311915783, -0.0007589468469781787, -0.009531678390802586, 0.002426671548020015, -0.0017356229808081893, 0.00579878175574726, -0.005807191897465548, -0.0006772155482981709, 0.005471316540916091, -0.0025555215341798755, 1.9559449934537402e-05, 0.014205322917790333, -0.0029375334732376903, 0.004221571629909107, 0.0033460072427419054, -0.0035311814749080473, -0.002611867391026695, -0.009891329574817902, -0.004518972681528967, 0.002438335594577031, 0.004756571202032007, 0.00759781838230369, 0.008235860773654038, -0.007276626095819978, 0.0005776301924166404, 0.0034451119158512987, 0.009435039479897035], [-0.008525497312826277, -0.005801199580655448, 0.00023086891011538257, -0.00908128417050513, 0.00024122850888936718, 0.0006048881682974744, -0.011470254856132575, 0.002131478284135285, -0.000599807661860452, -0.01292296255925338, 1.2328813413233623e-05, 0.010366174259637295, 0.004267511148584117, -0.0004563675884785484, -0.004886072811934234, 0.003771740974787508, 0.0025340719367383077, 0.0020454509403212136, 0.003491284142618289, -0.0013186112912802422, 0.002884535352671046, -0.0005953585194186257, -0.004591533793621076, -0.0073928547616342955, 0.004617534730314479, -0.0025998939418308657, -0.0017199977348330675, 0.0021492360217234964, -0.0018013032496853423, -0.010868039320143097, 0.003617068297975096, 0.0051999536650692455, 0.008472131184441867, 7.209744065116975e-05, 0.0014594996213980263, 0.008886975033490965, 0.006035477036883282, -0.003592398997726362, 0.0003308805303880307, -0.005903565201909324, -0.0025100097508598904, -0.002740648430512794, 0.000764530241564561, 0.011502880646889847, -0.004400852066889511, -0.00031648796361062094, 0.014612891037884218, -0.004954819913278581, 0.002625671831274753, -0.004278502318346844, -0.002748751179694257, -0.0023958047777541853, 0.0025264428316857357, -0.004393334804620718, 0.0024635998649337873, -0.0018170784025760454, 0.0007338443295276872, -0.0008461727445652436, 0.011219840247467982, 0.0044517629899595325, 0.0012578187594020772, 0.002004788417015374, 0.004997164703002634, -0.006296624017302081], [-0.0066358599498769, -0.0052331168967486305, 0.0002112921317739433, -0.008472245041248485, 0.000567043654453523, -0.00030168868600130604, -0.011981757046845997, 0.001431244051140789, -0.001081363794074804, -0.012715515035822824, -0.00012742087772037327, 0.010565260086818578, 0.004162912450092238, 0.0009112488799813326, -0.006279085848221977, 0.003712116145786604, 0.002144667294324269, 0.002562490947312631, 0.003397881373761344, -0.003721544890632846, 0.002013871608664651, -0.001972685417382239, -0.0034412639417546226, -0.007200105968686461, 0.006024803584733401, -0.003636019217390359, -0.0030772545443701364, 0.0017147100651285759, -0.0034983282748604493, -0.008767276771576033, 0.0009446333622783311, 0.006648928148125638, 0.007758367782002462, -6.431555349693581e-05, 0.00026673768827463647, 0.008375216855151536, 0.00521292461517765, -0.0016009944129566145, 0.00018744462055512117, -0.007723542121898803, -0.0020540631117246257, -0.0030751201240791356, 0.0018665344085747532, 0.010421906281706556, -0.004537502796091676, 0.0007213703052517433, 0.014154811565070055, -0.004960246254296911, 0.005326648876242238, -0.004843929993626033, -0.0019525773933367174, -0.0017651599162005472, 0.0018608933195874554, -0.004897163680817196, 0.0005907944705406859, -0.0026781193748969937, 0.0011979877429461898, 5.5051721013695985e-05, 0.012682580786963039, 0.006023119307992598, -0.00012094649169508388, 0.0021181187960181065, 0.005660254980691769, -0.0045174909591178865], [-0.012523525653843542, -0.0067514855201210085, 0.0002612114493561312, -0.009877683815926797, -0.0005811006095974091, 0.0027938414383170958, -0.009317326972427226, 0.003692879299534002, 0.0006345031256423678, -0.012430343402673003, 0.0003560461064867366, 0.009069582586621844, 0.004193856219517372, -0.003793959984355243, -0.001070673817204142, 0.003625690588759397, 0.003297563928961002, 0.0006112804324351223, 0.003450337603955645, 0.004710399449855369, 0.00480775854532801, 0.0028479146746086064, -0.007071717557730498, -0.007293736010166953, 0.0007878440167834488, 0.00015762298536146013, 0.001761172468921437, 0.003053920351427131, 0.002524181742754358, -0.015204739432362075, 0.00992721175926174, 0.001222140507085725, 0.00957415853507472, 0.00040294047188090145, 0.004287879961150921, 0.009458543262923455, 0.007595175157392992, -0.008224782149706544, 0.0006589342933850334, -0.000956041560336298, -0.0034394892829073087, -0.0017027353145068656, -0.0020128399700030646, 0.013275064455957355, -0.003721823043806438, -0.002851642671820543, 0.014607097795534056, -0.004556389989023776, -0.004239999967844918, -0.0025514558041019536, -0.004498806068244965, -0.003765030977816716, 0.003971604968935484, -0.0028092903283527112, 0.006891193417569306, 0.0004477809010630994, -0.00046793632529968656, -0.003003174419617099, 0.0067402603492545485, 0.00023025314919752644, 0.004560626274742056, 0.0015694778800512492, 0.0029733970834775634, -0.010195316217500961], [0.002848391996768469, -0.001244305378981675, 6.295950337673392e-05, -0.003190504713989101, 0.001601196872551546, -0.003627497311208124, -0.009708881076189608, -0.001722238626566486, -0.0025243865748957152, -0.007463333719565729, -0.0006116723029036173, 0.00760736017126262, 0.00230454868688119, 0.005768158700211242, -0.009346436518345836, 0.0021823608319252587, -8.281152643360748e-05, 0.0036195226219459167, 0.0018506509842024423, -0.011510339527357367, -0.0019894357788449875, -0.006493475723448956, 0.0021219113485800153, -0.003941103463271474, 0.009235446952634473, -0.006280890474609874, -0.007134040753276506, -0.0005325307078196469, -0.008693364742076208, 0.002264933337692828, -0.009503548694725939, 0.009798193516572008, 0.002330981989763105, -0.0005581047274798505, -0.004342092360632895, 0.003495813087803864, 0.00026792713993571026, 0.00649976608117354, -0.00042137154916725456, -0.011899707293847034, 0.00039347748129076293, -0.003260966512296883, 0.005382397947724811, 0.002668777413913954, -0.0034607819264996227, 0.004396704373994993, 0.007448260337172907, -0.0032382757803145036, 0.013679802893219474, -0.005282671208310601, 0.0017472205045301467, 0.001242199609136951, -0.0013122262974400076, -0.005084025713446046, -0.006706137578644778, -0.004996725640525419, 0.0025341263030812656, 0.003447241634907868, 0.013764362462200768, 0.009855497272813556, -0.00529768890846677, 0.0018030385883500745, 0.0061819207309266756, 0.0038042805723968766], [-0.010342708233544043, -0.006531348514357946, 0.00025778795809025854, -0.010026548280908452, 2.5051376508563e-05, 0.001278846347392927, -0.011760571843407433, 0.0027465241849855253, -0.00029410810810140533, -0.013802994156045629, 0.00011162633591266208, 0.010814228715931377, 0.0045835866848996714, -0.0014471710802591731, -0.004180655922355821, 0.0040279399027646975, 0.0029526745930862214, 0.0017967894905926908, 0.0037553921314805493, 0.0003018690698277836, 0.0036625774311208224, 0.00034258666461350364, -0.005663757205675156, -0.007948556944834312, 0.0038868143094966372, -0.002016479538109693, -0.0008600613760335943, 0.002577824948593034, -0.000706266194277547, -0.012967197746822083, 0.0057079016442495535, 0.004472874158767401, 0.009456698153388845, 0.00017243404865664995, 0.0023838885041246607, 0.009752573076558886, 0.006958462532261449, -0.005201344540277925, 0.0004508638238437258, -0.004954678300970257, -0.0029741936994553434, -0.0026602626030757088, 3.0437802190707253e-05, 0.012918589680443824, -0.004554289044315473, -0.0010666958518497222, 0.015765692726292392, 