{"spiral_data": [[0.0, 0.0], [-0.0010666881014149434, 0.010044529932008162], [-0.0034518120336543274, 0.019904939435405264], [0.02889264454632243, 0.009137217118260765], [0.03678463985613431, 0.016714567048710088], [0.050065912724476996, 0.00664563838790186], [0.05284283564849332, 0.02967708379898225], [0.01929947610335122, 0.06802220277314514], [0.07931830477332692, -0.015445143306908613], [0.06361634688989067, 0.06494169091040404], [0.09972848897795135, 0.016039606985379953], [0.11110031434052146, -0.0015489240727038992], [0.10986328226259151, 0.0512097406674952], [0.1311531024316435, -0.006480908718266566], [0.13491085041654374, -0.04239129429238684], [0.15018571669761308, -0.020027272372533118], [0.14149429683272133, 0.07809704001660385], [0.16427465088662088, -0.050006260994234296], [0.11150708481937226, -0.14361065863909525], [0.1919190733329512, -0.00021334933075899422], [0.18801177623349202, -0.07391707530611974], [0.20047969624941744, -0.06930584407907886], [-0.001169201910454055, -0.22221914637644372], [0.10773778956324515, -0.20583161316265414], [0.11911097613743812, -0.21114471027841192], [0.21266961550978208, -0.1361640106704559], [0.06388137757152954, -0.25473853933121776], [0.1861978593303056, -0.19927499208397412], [0.08287720602711654, -0.2704130290661566], [0.1481418220864864, -0.2527084707819493], [-0.06817709046860589, -0.2952613230510776], [-0.08593834476978304, -0.3011076554350128], [0.004337259426812826, -0.3232032223893036], [-0.12665055310580847, -0.30833544802552937], [0.08622422201048908, -0.33243425182863523], [0.12184662290851267, -0.3318744441579649], [-0.23825990292351226, -0.27470643170038117], [-0.23474699679237787, -0.2908151853412554], [-0.3259227972888661, -0.20274672652120232], [-0.35992986464949256, 0.16012101245849966], [-0.3960069364319544, -0.08016953532926979], [-0.2141351745692713, -0.35448446781098614], [-0.42258049398900216, 0.0375148054386527], [-0.22475833115173288, -0.37166908875387694], [-0.39030553491534825, -0.21258516790212514], [-0.4453892676676742, -0.09077428322155348], [-0.3267925803034021, 0.3303073516697787], [-0.44799754750370413, -0.15710939567629492], [-0.4663497819420392, -0.13264966695202796], [-0.4862396032257867, 0.0924448527803993], [-0.505040236096115, 0.0032206483432139898], [-0.2772772264305035, 0.4341640510980949], [-0.5252525176163059, 8.956498805357003e-05], [-0.5341375699028567, 0.036061949944503985], [-0.47247355196449553, 0.27256082596565123], [-0.4603469090118737, 0.3110027309717001], [0.1876503478620982, 0.5336241160382599], [-0.029292916860279936, 0.5750119225407916], [-0.21775508475785418, 0.5438869420075478], [-0.4799707061771398, 0.3532647183460905], [0.12016938509226764, 0.5940275895150792], [-0.3588519522918586, 0.500879639801037], [-0.44616372850197167, 0.43948015247856287], [0.397396550182162, 0.4970258138057488], [0.2155464539560052, 0.6094721202119521], [0.44411881996981306, 0.4835668879587522], [0.34438283204802517, 0.5708282661493089], [0.5355157167985609, 0.4138084162740556], [0.1765731233895385, 0.6637849991504607], [0.11749609178794145, 0.6869944882665296], [0.6389753480016886, 0.30275318238391935], [0.33551007706743524, 0.6338519228473108], [0.4370998496222397, 0.5812652933858397], [0.5601512611522788, 0.47953163941290156], [0.6967573778858462, 0.2706430388428226], [0.680427181049627, 0.33307638726775773], [0.49812728012459434, 0.5841205632626915], [0.7169811655674261, 0.3014569286424072], [0.36654943105975596, 0.6974198871405356], [0.7225055867495742, -0.33875866793269316], [0.6784855017434989, 0.4389214238476001], [0.7976763660925, 0.18202720285927004], [0.7440399584177673, -0.36394640251812993], [0.8276653454992329, -0.13363209316198568], [0.14222902230898155, -0.8364791947929056], [0.8554533063069208, -0.07327562549834389], [0.4936358084082412, -0.7148010663717139], [0.5363947874074944, -0.6960953727375069], [0.800064425378322, -0.3873246339108563], [0.1549637264765285, -0.8855332190055756], [0.37039415771776907, -0.8302134959877971], [-0.14012147734661906, -0.9084490937272846], [-0.2567290834919841, -0.8931268253295269], [-0.8152161805523724, -0.4667799827923922], [-0.6391352059007751, -0.7021729471395138], [0.01286710892580542, -0.9595096889457564], [-0.14730832784443626, -0.958442731511467], [-0.7813247971650776, -0.591215394379369], [-0.7113804766762462, -0.6883587927868121], [-0.7803890745966215, -0.6252942445363051], [0.0, -0.0], [-0.006225518255983516, -0.007954453312775433], [-0.00801984750055758, -0.018541943434026348], [-0.02579309905137781, -0.01590564952688779], [-0.03239320688146262, -0.02414884322086862], [-0.050473346963041, -0.0017892380686154441], [-0.0589975620703595, -0.013870192930870495], [-0.07032016853536116, 0.007386727633607406], [-0.07376178163510713, -0.03300220437940612], [-0.07708558981545137, -0.048189984983618074], [-0.09918283213430344, -0.019126063784516544], [-0.11047534629636736, 0.01186915637454454], [-0.11135265656678596, 0.047884905808212516], [-0.016187032274453245, 0.13031162051561435], [-0.1303916793291957, 0.05473544878422931], [-0.15138403760089209, 0.006301928142323873], [-0.14569534800745193, 0.0699474750404098], [-0.15152790792721543, 0.08078415798747902], [-0.08835426681093249, 0.15890681160973555], [-0.1896708385557015, 0.02929077036359145], [-0.09942068090471592, 0.17586270279034694], [-0.07609389469845708, 0.1980028480133364], [-0.05024135821999293, 0.21646829322926966], [-0.119803488525242, 0.19905076843432884], [-0.06257766086133895, 0.234208346725925], [-0.1727119019872937, 0.18422703947812333], [-0.04876549689830621, 0.25805906326517575], [-0.030082831530203434, 0.27106307114098305], [0.1280732238079087, 0.2521687667238837], [-0.06254404735567423, 0.28617444469488656], [0.22856465853449862, 0.1989612058257723], [0.30271844231030165, 0.08007973494314942], [-0.1165964065813314, 0.30147041771040484], [0.2768495533457664, 0.1856486895277228], [0.3208874102827713, 0.12238634798128015], [0.21402919847185425, 0.28138718592157513], [0.27825575875564507, 0.23410497149355444], [0.33384754650784654, 0.16800428631079817], [0.3460128111818867, 0.1661536620290703], [0.36974704085056087, 0.1359241401649858], [0.2400030903035497, 0.3250340978141819], [0.3463200648755699, -0.22710245170766305], [0.33899503569060246, -0.255076459721818], [0.42564965957815204, 0.08646725541066146], [0.4047346467018032, 0.18363205046150685], [0.35661538959531425, -0.2818457630543985], [0.45330451627293283, -0.10203603596289272], [0.36876696747654897, -0.2989917866384529], [0.41292557067857444, -0.2541073126449632], [0.1985158925951867, -0.4533943569762381], [0.1541102494465518, -0.4809636614831643], [0.4096201999892587, -0.31239778380081634], [0.4788116455605158, -0.21593893433048544], [0.4877500513553655, -0.22068823081072397], [-0.02822659181185823, -0.5447237103997875], [0.37740070705065626, -0.40768944262306667], [0.1697580162194983, -0.5395827704806754], [0.14163260644477205, -0.5580654001404325], [-0.07265748258685274, -0.5813356800062793], [0.39139929940919577, -0.44941565219551005], [-0.2619946529285859, -0.5465054986506348], [-0.4042446285773175, -0.46501765288780333], [-0.3530322706680449, -0.5172746784062856], [-0.30521742270954266, -0.5583914420552082], [-0.46616322948136757, -0.4478932714477437], [-0.5718629844222097, -0.3225696644590363], [0.2764544651487408, -0.6066443547448276], [-0.6043399696556088, 0.3046107177926879], [-0.6710506731961041, -0.14655915871677835], [-0.5610002060288997, -0.41357650722636957], [-0.6502794391315493, -0.27764300070455145], [-0.7101720624629958, 0.09995455771541559], [-0.7257798577700478, -0.046574863284822444], [-0.44650203385977566, -0.5868185088488581], [-0.2510777750104021, 0.7040443515917613], [-0.7355498923695499, 0.18134879183944616], [-0.4723124271160258, 0.6051847575926039], [-0.7686928215978138, 0.11853108296531258], [-0.15851866261068667, 0.7717673341062495], [-0.5301153765136796, 0.5964473535590874], [-0.3618749054508394, 0.7225241485192574], [-0.7596853747606735, 0.30380852354409155], [0.03216656057957411, 0.8276579945899646], [-0.1010376686671979, 0.8322733024514939], [0.23954753700394965, 0.8139677608011866], [-0.4689021288531876, 0.7192360322735262], [-0.34084186185240417, 0.7990267211038588], [0.7792712479270388, 0.4062074076856985], [-0.4188633832956338, 0.7840133435881423], [0.06500152510299392, 0.8966368496889663], [0.6583167887015482, 0.6269491898913474], [0.35050795433240195, 0.8497399356611637], [0.6230686341502808, 0.6894714102643684], [0.3173983952893863, 0.8841488743632414], [0.7009321522563562, 0.6404957275811364], [0.08924783639591526, 0.9554366694718905], [0.9642868070923406, -0.1022896216981223], [0.7609672870197066, 0.6171975934026882], [0.6447576500028166, 0.7511242127410659], [0.9962039097010718, 0.08705038940923114], [0.0, 0.0], [0.005572085394105666, 0.008425097591215335], [0.012688833438771528, 0.01571989587134552], [0.029508047183691724, -0.006895563570252677], [0.04021761961478458, 0.0038767968081683266], [0.05049700697030497, -0.0009013398685700565], [0.045380466667805326, -0.04017098240269587], [0.06801763497831882, 0.01931556833051716], [0.0807878271928222, -0.0018091161786953516], [0.08694761230023958, -0.02654384156832963], [0.08120490935577385, -0.0600733152289048], [0.08711384458515006, -0.06896997240785298], [0.09661771473660533, -0.07319423152009948], [0.08547780920677309, -0.09968291021268474], [0.08338877492133576, -0.11421152134972022], [0.11239889644165309, -0.10160378544797367], [0.11383163668327524, -0.11472637964107514], [0.02340387472180164, -0.1701148015622123], [0.10540945640193623, -0.1481441788958234], [0.11624377110691284, -0.15271005829924655], [0.02560622456058448, -0.20039082635698713], [-0.010862224954058145, -0.21184291515370465], [-0.21727695767538074, -0.04662016422872761], [0.004708030890518455, -0.23227552329560794], [-0.190607218067572, -0.1497945317276599], [-0.19901234305875704, -0.15544481488041395], [-0.010670606491036832, -0.26240939765593785], [-0.24580784768416158, -0.11814680404537502], [-0.06865499933200002, -0.2743689644152892], [0.11175882934641619, -0.27077210845870764], [-0.2951549448920421, -0.06863616437719179], [-0.08117133688646704, -0.3024275670824407], [-0.321480671711046, -0.03360524510221258], [-0.2805226175092523, -0.18005047119313203], [-0.2621914796361694, 0.22181698820508483], [-0.308948475829096, 0.1718664757369683], [-0.3594286087295718, -0.05515868186788069], [-0.36844492123096995, -0.06267347562736363], [-0.36305270000250195, -0.12459792104427672], [-0.389095008753048, 0.06158993635978659], [-0.38114198259939147, 0.1340874237105708], [-0.38191199465568904, 0.1601759633814116], [-0.3078475611962323, 0.29191011217945345], [-0.20825292064931814, 0.3811626162129204], [-0.2183121503400316, 0.3871313332855432], [-0.3747831755239132, 0.2571947542080623], [-0.4339337237409108, 0.16612603802175396], [0.1389359588504565, 0.4539625140002294], [-0.28524656967318385, 0.39206179072890146], [-0.24136086908986573, 0.4321110197888326], [-0.1697750175056468, 0.4756600215308488], [-0.40441459458447343, 0.3191080056187526], [-0.06246349212433919, 0.5215251934813766], [-0.01018918732754394, 0.5352565630397569], [0.322225210728239, 0.44010404988839497], [0.387555780928747, 0.398048353818165], [0.2838618210410347, 0.4892747866236807], [0.5106840463752034, 0.26589206610970884], [0.457395144228159, 0.3660873729872742], [0.43533214507442786, 0.4070058519004637], [0.5126920477040617, 0.3231970334634357], [0.49523134458490103, 0.36660749115576724], [0.5029442194705421, 0.37316482839963516], [0.5662716854166067, 0.29033610864201204], [0.44905101133638575, 0.46504809250918294], [0.6565638592318027, -0.001536272154682962], [0.5740444327380142, 0.33899473991042417], [0.598733656713091, -0.3154877123383558], [0.6863076676902788, -0.027755688970806457], [0.6676859227108439, -0.1999056455125773], [0.5778884286050082, -0.40742354973897144], [0.5048610635720978, -0.5093629142368729], [0.7103537500060836, 0.155958871780368], [0.6220863964719681, -0.3958895602223363], [0.2629641480437708, -0.6996916141815989], [0.7573724655282555, -0.01754927138471885], [0.30172106535970156, -0.7058980226271049], [0.7766632029862126, 0.04162380006841397], [0.620482405038583, -0.4855456409307821], [0.2168584049279392, -0.7679480387343854], [0.6893674285278119, -0.42162440735029094], [0.4519843820331334, -0.682005576224588], [0.550764335436792, -0.6186364768093378], [-0.6738512331681029, -0.4988105612565205], [-0.2447623899044945, -0.812414863599009], [-0.4813656475000192, -0.7109548438336315], [-0.25770792602559384, -0.8295803159987489], [-0.29043585673078987, -0.8294065040916618], [0.17108749539041654, -0.8722686086929632], [-0.48485612464433764, -0.7570319523512489], [-0.3837837680323586, -0.8241093983122753], [-0.8961766154018171, -0.20440464357413046], [-0.9291364764713813, 0.017051584213195338], [-0.9022628706581169, 0.26150083288937803], [-0.9467472562344181, 0.07218235192218372], [-0.8188317290528675, -0.5003388903225314], [-0.7378350649489632, -0.6292150903874166], [-0.924950177754373, 0.32322012605708256], [-0.9633767160363719, 0.22760780567022804], [-0.7455747668711811, -0.666421988686586]], "weights": [[0.007065731681919481, 0.00010500020720820478, 0.01785870493905835, 0.0012691209270361992, 0.004019893634447017], [0.018831506970562545, -0.013477590611424464, -0.012704849984857337, 0.009693967081580112, -0.0117312340511416]], "biases": [[0.0, 0.0, 0.0, 0.0, 0.0]], "output": [[0.0, 0.0, 0.0, 0.0, 0.0], [0.0002016267000366845, -0.00013212302351274117, -8.26421707559873e-05, 9.820434307868685e-05, -0.00010573358460477209], [0.00015104234560897687, -0.00018512110328528113, -0.0004395011843322632, 0.00011308771621957839, -0.00021975145990446522], [0.0005983141856067572, -0.000346341600205561, -4.48135732580073e-05, 0.00027043773874241734, -0.00023915818455277798], [0.000749181866422614, -0.0003929814293929946, 0.0001222469988457791, 0.000319961619368988, -0.00023307508262532326], [0.0009967061080432668, -0.000576338123130203, -7.194599291019336e-05, 0.00045022737248282793, -0.0003973958402660326], [0.0011617075460147424, -0.0006379541976844644, 6.427320515274797e-05, 0.0005092569404912872, -0.0004080477875336443], [0.0014199718215499616, -0.0009072035684535521, -0.0004799590482956348, 0.0006809301188785038, -0.0007066509776319867], [0.0014739529419210448, -0.0010865942661143226, -0.0011333436367548314, 0.0007732933834296305, -0.0009699210352296668], [0.0017365386306555702, -0.0009486945574725474, 0.00011768301981489448, 0.0007589837956066106, -0.0006019140493950584], [0.0010313157354661037, -0.0002245274712019944, 0.001555334115101784, 0.00029527905420862746, 0.0001954281816963105], [0.00221140658180023, -0.0013057818340600914, -0.00027820174297812206, 0.001011336780130899, -0.0009258427420412231], [0.0009389857720516946, -4.675615300181219e-05, 0.0021071914722830165, 0.0001965091898823878, 0.00043516826764255985], [0.0018858124559098036, -0.000735323837566123, 0.0014204985262341128, 0.0006889250785123819, -0.0001724965771305258], [0.0016297625260053461, -0.0004593540632539009, 0.0019996402327801628, 0.0005145815991412882, 0.0001382769476339603], [0.0017866179427641878, -0.0005243768634315452, 0.0021008685098990584, 0.0005736553813810931, 0.00011762998539951091], [-0.0003162852559225764, 0.0009752181740801339, 0.003495769111515642, -0.0005063686764737144, 0.0014187754762109994], [0.0002878098449991143, 0.0006469707425947389, 0.003544500763658641, -0.00024315426931476999, 0.001212286370669199], [0.0002042948573814002, 0.0007495439640632806, 0.003788455188277229, -0.00030578197393650103, 0.0013341434914065108], [-0.0017122636164955795, 0.0019023708094915144, 0.0041222498670354536, -0.0011919776652853555, 0.00217104183955066], [0.00045005814991988974, 0.0006888090414989766, 0.004127402472897044, -0.00023209990448287173, 0.0013689187799366233], [0.0015748434415222548, -3.2356969777427775e-05, 0.003736024855352082, 0.00030844869021105184, 0.00080500147668312], [0.0006282051088122837, 0.0006703526584125538, 0.004485168633606891, -0.00019042000511963292, 0.0014358412389640926], [-0.0025244767897073324, 0.002523995990882768, 0.004846988767125463, -0.0016285857121989059, 0.0027428129613165137], [-0.003535310554800379, 0.0030183617032838736, 0.004524845297365177, -0.002043840347197888, 0.0029987771910722173], [-0.0014525748125337583, 0.0020780979896522166, 0.005531948883918629, -0.001224181499351733, 0.0025991857768872043], [-0.004338903853332378, 0.003438063889692577, 0.004385739615054045, -0.002386204826778357, 0.00324580969536687], [-0.0030476853415009014, 0.003002355228287063, 0.005655400830396856, -0.001945587152678143, 0.003238264339748357], [-0.004189479909904065, 0.003545343434886506, 0.005223905375465688, -0.002407563941493927, 0.0035022230981112076], [-0.005725275603636604, 0.003915592654302235, 0.0030650817223857227, -0.002863748166480339, 0.0032697553923840975], [-0.006087397962508077, 0.0038809236116304816, 0.0020214398448949577, -0.002915354885165008, 0.003015951389492682], [-0.004877829127984131, 0.004008587179551678, 0.005559425200756186, -0.0027484186449236933, 0.003883064421536183], [-0.006298925784527218, 0.0035534736902338633, 6.529921895958125e-05, -0.0028045661296862406, 0.0023665070324534964], [-0.0061313488686306535, 0.004487109181047003, 0.0045702520813496635, -0.003201649532868198, 0.003980992868515584], [-0.004547137628921981, 0.004093854297994911, 0.006747454326061528, -0.0027258846634498858, 0.004202298399918821], [-0.005451153857806213, 0.004507037449621187, 0.006332495656065225, -0.00308398063549096, 0.0043839965002028265], [-0.007306257261816344, 0.0046510578108061315, 0.002395809776195544, -0.0034959072783109163, 0.0036085188445162987], [-0.0071196780308961085, 0.005033182121037676, 0.004530166730693305, -0.0036364303528127364, 0.004333574393244797], [-0.005426321118140632, 0.002074821767597018, -0.0042672573974812875, -0.001963519552679536, 0.0004294065049659171], [-6.770784306868405e-05, -0.001861449053877376, -0.00832583521770469, 0.0008413568747998816, -0.003073799876220753], [-0.005989347613689118, 0.0024267580208114287, -0.004111029853799275, -0.002229945136894543, 0.0006969128885824195], [-0.007921094067986151, 0.004335688448570145, -0.0005004764648163286, -0.003465851213854059, 0.0027591079395189438], [-0.007738042288777409, 0.003976278258931401, -0.0016251033182082678, -0.0032668369749738104, 0.002272441992807537], [-0.003713362229462436, 0.00042277633466156493, -0.007290567742690022, -0.0008862544322078773, -0.0013328552982233154], [-0.0027467399122898905, -0.00032585901750712586, -0.008191805369594742, -0.0003625906276686906, -0.0020277371028888215], [-0.007364930176620493, 0.003305460942648994, -0.0036466920736634226, -0.0028895243058729638, 0.0013812436739325058], [-0.004023006411352748, 0.0004896580691421964, -0.007759870871341472, -0.0009746660486970911, -0.0013923970425402362], [-0.00031896109473560883, -0.0020936077105201682, -0.009962113501144966, 0.0009010225392417213, -0.003589416042331715], [-0.006346653485000314, 0.0021909927443012375, -0.006024257807965709, -0.002188396663118347, 0.00011764747177048567], [-6.232953460871829e-05, -0.002353008420831027, -0.010467197408930056, 0.0010678730386344479, -0.003872840633873593], [-0.0027100971963242683, -0.0006571264525598124, -0.009553590489532044, -0.00020378309983650858, -0.002548235259266873], [0.002893772572391366, -0.004200776649797059, -0.011287318544594202, 0.0024666942745959998, -0.005277301006166766], [4.177724765729262e-05, -0.002564609903016344, -0.011138340396471517, 0.0011843588190305683, -0.00416135938237661], [-0.0014239288955454163, -0.0016738701073274866, -0.010843160405681828, 0.0005024553823552938, -0.003506479484682971], [0.00011148060049487213, -0.0027057302116545072, -0.011585264013240074, 0.0012620958743449864, -0.004353628350011652], [0.0024318512909328404, -0.004141807075210457, -0.012166265324558166, 0.002353522915941764, -0.005432694125026218], [0.00146306772578844, -0.0036262715183839047, -0.012292073740953292, 0.0019363957415924015, -0.005119287624793985], [0.004707132365622613, -0.005486832690620555, -0.012459197783843669, 0.0033947719993677374, -0.006387771003502837], [0.0030495326140920946, -0.004642539111288482, -0.012840114747260952, 0.002698401289355813, -0.005913188557799874], [0.007269183329025874, -0.0068373097196649645, -0.012069890453957113, 0.004491985670181707, -0.007195542928933138], [0.006541946769974864, -0.006563737159918753, -0.012661493501893497, 0.0042308967955691865, -0.007145328014063864], [0.010450964284697438, -0.008137958556971166, -0.009936169483399959, 0.005681878273265943, -0.007584464337675019], [0.012411470768601763, -0.008280421032181686, -0.0057331133631346115, 0.006112740911385101, -0.006749033697256314], [0.012181631627979972, -0.0085640468157119, -0.007542253096296157, 0.0062000105472738995, -0.007336953638166808], [0.011616364222421181, -0.008670191566485807, -0.009399406566298507, 0.006143321724857792, -0.00781801873019738], [0.00810605148123266, -0.007575634986302816, -0.013245440022699931, 0.004986728923263449, -0.007944278972092681], [0.012734022648519206, -0.006956289101760279, 0.0008650717190998947, 0.005565401431438018, -0.0044130476582538505], [0.01294396934530966, -0.007084798128689211, 0.0008187573731368613, 0.005663498905202187, -0.004508353307449137], [0.012450313588248212, -0.006349415234732031, 0.0028265268808857834, 0.005234091960426974, -0.003577475552436493], [0.0011946042210955097, 0.0026088668722315084, 0.014376760220517778, -0.0009741592177427666, 0.00490700045458793], [0.014146537693115498, -0.008498517432594553, -0.002416692562266338, 0.00653627266423696, -0.006159791656046215], [-0.0005109559139152681, 0.0037834711589519944, 0.015325566523515279, -0.0018310085332216418, 0.005894355625634329], [0.011648450009229074, -0.00516047819011356, 0.0060633946749283595, 0.004539146872199476, -0.002074508113233935], [0.008158271288703264, -0.0021272481082328897, 0.010764542541021506, 0.002496899440210499, 0.0009731091360378789], [0.014808606280347095, -0.008639770089949685, -0.0014055720842166752, 0.0067245074086154846, -0.0060296249598563246], [0.013528519463125927, -0.006777894670493251, 0.0036033586931267223, 0.005631680290913371, -0.0036892510324676143], [0.002332706820294434, 0.0022083299754360993, 0.015423557997502484, -0.0005782233488919693, 0.0048734374818544205], [0.0027379784824325677, 0.0019881989219651002, 0.015456608441093643, -0.0004016770952817063, 0.00473504244238929], [0.005297462994399934, 0.0002749241853375118, 0.014249379396977149, 0.0008614993774561659, 0.003333974702317914], [0.00731776517675033, -0.0011451424863695675, 0.01299967342614773, 0.001889638450651897, 0.0021175868913328798], [0.0037507409770663204, 0.0014537380303467845, 0.015607755762893652, 3.2331648819151034e-05, 0.0044147141987461586], [0.0028357286882970934, 0.002121192307297065, 0.01628024322005408, -0.00044446672624839944, 0.005005261677229446], [-0.0030054732198439376, 0.005817371093692365, 0.018098135115398983, -0.0032291666421795364, 0.007853904155875563], [-0.005541842163227145, 0.007293399707483379, 0.018322384864436856, -0.004379191811602433, 0.00888049979878545], [-0.009222484779563146, 0.009219324178696114, 0.017700991805483936, -0.0059489478354115425, 0.010017825385426359], [-0.0072639891717462485, 0.008308419197811756, 0.01853085518080295, -0.005165920514587418, 0.009598460658440012], [-0.012635487781219895, 0.010803587330335488, 0.01624105564233693, -0.007312062255866186, 0.010743515587496267], [0.0010465441682803176, 0.003584995964108784, 0.01829075528312172, -0.001449582913772085, 0.006418891574616218], [-0.0008422861381685659, 0.004818028940964425, 0.019044386990482408, -0.0023674054274388733, 0.007401747854510252], [-0.017876678091228726, 0.011835067960586615, 0.007856481022265452, -0.008762411890455846, 0.009571567563499698], [-0.017164304910680835, 0.012251380721731462, 0.011435393840898055, -0.008820593828588283, 0.010638792258555223], [-0.010487138975356228, 0.01021863456767561, 0.01896712389262065, -0.006643177471935831, 0.010959345931110151], [-0.015249163507018427, 0.012136054496341437, 0.015645687961243524, -0.00841063812015116, 0.011493785588544829], [-0.017821784820959263, 0.012656128123741438, 0.01159052394303285, -0.009128856986814092, 0.010941011858514125], [-0.019095832930029373, 0.011882674590516987, 0.005063136597239149, -0.00901154427165221, 0.008985183356654793], [-0.01906337505199478, 0.011199723196179146, 0.0021495438717411314, -0.00869217433583529, 0.007888639756888827], [-0.019045558096174697, 0.010903664816964493, 0.0008957312248783966, -0.008553029482198965, 0.007415330457990229], [-0.01718857765678252, 0.01306834149676925, 0.014956532034664332, -0.009199917472770148, 0.011958428050410962], [-0.019793404318512335, 0.012899101173169924, 0.007800661912752695, -0.009607902861987, 0.010263509330015137], [-0.019835366189034535, 0.013208617031177103, 0.009054007663211685, -0.009757723055392718, 0.010745622925202855], [0.0, 0.0, 0.0, 0.0, 0.0], [-0.00017100699403661997, 8.061349853160071e-05, -6.773750931397971e-05, -6.886468546121593e-05, 3.837477405900938e-05], [-0.0004007079202999539, 0.00026684601305699467, 0.00018294844711460475, -0.00019712691290114096, 0.0002170954477709055], [-0.00042971396708263036, 0.00016494195366688176, -0.00033514166876101267, -0.000155783938063351, 3.504169839342901e-05], [-0.00032667294342911767, 2.5548357524201752e-05, -0.0006924069671200958, -7.262377678881646e-05, -0.00013625168867180314], [-0.0009678846696485347, 0.0005313455591168598, -5.429651543547572e-05, -0.0004242127693836242, 0.0003396898471454621], [-0.00022735047425511058, -0.0001455477815978269, -0.0011977874864447368, 2.4387345363778173e-05, -0.0003612926377125828], [-0.0013748107457840744, 0.0007725516377179082, 9.554170750258396e-07, -0.0006107360843373187, 0.0005115672776100351], [-0.0013019677446821005, 0.0005806545883290202, -0.0006608020904762983, -0.0005091187667971582, 0.0002381670887538863], [0.0004392574395094874, -0.0007012613010251198, -0.0019921565155093606, 0.00040361123641636837, -0.0009048388598599812], [-0.00015586938033339883, -0.00038923141220397064, -0.0020898897317465086, 0.0001495089686141067, -0.0007199235074027417], [-0.0006758126277437004, -8.910197586197422e-05, -0.0020546550688740023, -8.511694192774417e-05, -0.0005134722745274188], [2.4875593561920638e-05, -0.00060133701464734, -0.002574530561914699, 0.00028051398334977734, -0.0009675211580696686], [0.00016227520964426725, -0.0007349344157122264, -0.0028217862745879845, 0.0003674206220686426, -0.0011106435980026595], [0.0003510780331922969, -0.0008978277564222573, -0.003070878229171965, 0.00047735070648339764, -0.0012735633540038043], [-0.0010496096469913732, -3.0885990523912864e-05, -0.002719910174261798, -0.0001815132238257638, -0.000622095026207151], [-0.0018249742983279663, 0.0004952243833614237, -0.0023230974706808364, -0.0005674319778283671, -0.00018608380562234209], [8.921345638515463e-05, -0.0008854225724081153, -0.003661312045999807, 0.00042283912177488834, -0.0013959578429369936], [0.0006174147663183974, -0.0012523126293977611, -0.003968837780300915, 0.0006896324903103796, -0.001706829792590211], [0.0036790614209809575, -0.0025821520522189383, -0.0022588806058728705, 0.0018705197959083758, -0.002208810290101563], [0.003996900655094729, -0.002324402591404921, -0.00034647304483399386, 0.0018115276835028518, -0.0016151749008122354], [0.003827676343057995, -0.002847197591131477, -0.0030546842176387735, 0.0020198220172201863, -0.0025602792015842015], [0.0008193519193534062, -0.001568315549604958, -0.004856698826743554, 0.0008722535820761734, -0.002112391010671747], [0.003914976745824202, -0.0030619540176257615, -0.003781039550052722, 0.002134621917215246, -0.0028630993429287657], [0.004501560289531809, -0.003266140432085288, -0.0032316429850189382, 0.002337655908051044, -0.0028767233955469223], [0.004996323229098452, -0.0029058860010862204, -0.0004342829320657988, 0.002264622008588529, -0.0020194855689301115], [0.002773457413183275, -0.002815126551801796, -0.005509990582815154, 0.001808566571020259, -0.0030821715705494765], [0.005325903997693153, -0.00364716302088652, -0.002871901437718787, 0.0026661438678943624, -0.0030493484281608196], [0.00422856181153231, -0.003559461863552052, -0.005189555123513128, 0.002421327267265386, -0.0035039697913838742], [0.005775792482673934, -0.0033334116562577904, -0.0003888715179037915, 0.0026060781330440683, -0.002292421891308268], [0.006065384722383783, -0.003938274392989789, -0.002327024900163914, 0.002937561778832755, -0.003121508403392845], [0.00502374320324767, -0.0040552556734425845, -0.005404687896889399, 0.0027970321560125727, -0.003879726232925574], [0.0044804200613594355, -0.0016707169412581641, 0.003709370491857964, 0.001601779705675692, -0.0002853335045239334], [0.0066883661515106645, -0.004295442593376061, -0.002358553727679936, 0.0032175652648293632, -0.0033648941493657014], [0.0025215547325617357, -3.207922892663675e-05, 0.006068398647626185, 0.00048482036532716165, 0.0013211126560767723], [0.00705789507560116, -0.004623033884388619, -0.0028845355163701104, 0.0034367475621324777, -0.0036980771073591334], [0.003772433320312452, -0.0008541846454892051, 0.005545071637811859, 0.0010951851570800452, 0.0006611954771903643], [0.007464951621775258, -0.004457136318089403, -0.0011550473532642225, 0.003436527620986448, -0.0032057012251997], [0.007398837699128017, -0.004098520379350195, 0.0002540427653950466, 0.0032596789445439142, -0.0026566369597048026], [0.007908938776440944, -0.004832072747378948, -0.001705208657640623, 0.003691312061535762, -0.003575570749582551], [0.00515562610394712, -0.0017156169930428195, 0.005175173531970742, 0.0017482598807610564, 9.186483916702433e-06], [0.0012580756600940894, 0.0011915731820748281, 0.00832076145336931, -0.00031211193101304314, 0.002629283231258821], [0.006550737726103298, -0.0027838596757593136, 0.003928131908392741, 0.002498435383277297, -0.0009737378428288381], [-0.002802282553233975, 0.003741150902013434, 0.009497967118510966, -0.0022387742039389775, 0.0045772630025013444], [0.003024137766968757, 0.00012960143855614056, 0.008014625130746337, 0.0005043443949161271, 0.0018586404489921789], [-0.0011504276888977415, 0.0028989504745951735, 0.009873912740793769, -0.0015444348143513278, 0.004102966350910334], [0.0054172021963580915, -0.0015588088326075524, 0.006506593810720938, 0.0017250874097404097, 0.00040749235703086534], [-0.008572159026000569, 0.006373045177536448, 0.006826511400492432, -0.0045219131588079145, 0.005728394303895385], [-0.004176329808880131, 0.004729928059748354, 0.010448563365591126, -0.0029485660700759933, 0.0054420141732865485], [-0.005215314997576371, 0.005299898391775605, 0.010388491153142984, -0.0034037543356428184, 0.0058059923583189555], [-0.008428716875180991, 0.006634859093042139, 0.008327303617586894, -0.004615283458929589, 0.006233669558267021], [-0.00784780716461205, 0.006534729561802852, 0.009318831764471262, -0.004461045603181597, 0.006386721988742728], [-0.009628600772885477, 0.007067702071964087, 0.007269981422818352, -0.005037558569450486, 0.006286288064901253], [-0.01000235664820387, 0.007214923443101096, 0.006994956502590637, -0.005174780321703173, 0.006322898403874853], [-0.006932539908909536, 0.006379701007630082, 0.010893039244408828, -0.004219286049263328, 0.0066323267031061775], [-0.01046851876184863, 0.007487441944945792, 0.007041595988652371, -0.005386712492898195, 0.006513596593460426], [-0.010749098122530653, 0.007619797003193032, 0.00693084430914399, -0.005499742740737978, 0.00657670452444965], [-0.011573111034203215, 0.007338546778877459, 0.003669039641196003, -0.0055243370876990015, 0.005669023597012658], [-0.011476647283156508, 0.007821150251434024, 0.006021919454858585, -0.005727757727640898, 0.006508924667349362], [-0.01180732451501464, 0.006889389709670122, 0.0011235710516836381, -0.005361941928635387, 0.004808659720574193], [-0.012133177883581644, 0.007307378733371123, 0.002153330168166095, -0.0056144535311768405, 0.005313114303480252], [-0.011735689642735572, 0.006384105828162907, -0.0009148001245657878, -0.005116776876897923, 0.0040233165244066916], [-0.012559679101829743, 0.007625953690257235, 0.002499504470452721, -0.005840120958665265, 0.0056005554046732525], [-0.012554980924425493, 0.007255384703034902, 0.0008867932092994383, -0.005669238541331922, 0.00499853781128425], [-0.011499731004108072, 0.005735406537422006, -0.0031771640555402817, -0.004775181388566631, 0.003093498126485546], [-0.010546263653091473, 0.004687343186043909, -0.0054232484922212346, -0.0041166010612670705, 0.0019029396528588362], [-0.012697552647243957, 0.008978309159669249, 0.008087659944235529, -0.006486247511790007, 0.00773180149095878], [-0.013383834997323926, 0.008968596343827096, 0.006355203495159243, -0.006609737855005479, 0.007342148512548677], [-0.012550969792956692, 0.006463792026430103, -0.002573043056896187, -0.0053053305118000126, 0.0037092534462533815], [-0.005703855783570991, 0.0004910181219763551, -0.01189278772548894, -0.0012886573354557742, -0.002305709114460948], [-0.006272994452522103, 0.0008571762920546873, -0.01168927305252461, -0.0015627470472941603, -0.002018329130410574], [-0.005675098200739499, 0.0003634784742387013, -0.012381008280013223, -0.0012247843816319277, -0.002498123965636416], [-0.009894861685474184, 0.0036009214657010237, -0.008581263201094763, -0.0034967382374099533, 0.00048527015264039316], [-0.014597536534087113, 0.008501330772591532, 0.001318496603986473, -0.006621644825364094, 0.005918729927636545], [0.007354987015817097, -0.0077514920052075675, -0.015865658350135328, 0.0049273832341292356, -0.008640278970034625], [-0.00923819292311068, 0.0028671964603222, -0.01018036700707366, -0.0030377007316073163, -0.00035411228752191097], [0.009167905191712853, -0.008720202533178109, -0.015647634501074134, 0.005709789525871072, -0.009233246033466903], [0.006443856869851333, -0.007456099876637169, -0.016814436367571618, 0.004622000159762768, -0.00865462963102374], [0.011579753131020812, -0.009843015353085483, -0.014630284099643414, 0.00667455439080918, -0.009751401025163994], [0.011249671965180983, -0.009787789549960364, -0.015201001046797506, 0.0065876800373203025, -0.009841090899688227], [0.004229347204567448, -0.006416458038635213, -0.017710421799224576, 0.0037321823246406136, -0.00816467968674575], [0.015039811328694964, -0.011012990399595883, -0.011238570695142641, 0.007856377889524844, -0.009775557471933278], [0.012440674178163686, -0.010444505821767617, -0.015146831463945173, 0.00711100600362157, -0.010263792349779978], [0.01208431526879528, -0.010385173495924285, -0.015764254287456016, 0.00701734863157078, -0.010361095560788996], [0.0167112200431887, -0.011285222617301673, -0.008316188554968, 0.008292877567036333, -0.009309310618095973], [0.01346030627992946, -0.011019452714096727, -0.015156227056954165, 0.007564869301781451, -0.010646431010862508], [0.01737197724319302, -0.010417632488590158, -0.0028863322149139214, 0.008018039431008265, -0.007533949418791512], [0.015237965355223766, -0.01168410395155976, -0.013692269992482044, 0.008201208341834933, -0.010762535882084867], [0.017800833453387243, -0.011535360200272585, -0.006729558191119481, 0.008610774476424448, -0.009123911088038021], [0.016590749346494266, -0.012105796346880148, -0.012209575426986693, 0.008646873644989358, -0.010713680249785371], [0.017818144765873935, -0.01015951236641369, -0.0006563078459417373, 0.007982802015268665, -0.006869810996650997], [0.018275539677708914, -0.012103745081020622, -0.008052001951524246, 0.008960034644124329, -0.009792656097528621], [0.01863554445081011, -0.012003787549560573, -0.006727401514034236, 0.008981294070202563, -0.009433488517844828], [0.018754418471516945, -0.011179910769130401, -0.002823468304181704, 0.008625484971850443, -0.008024599701433665], [0.01799443878911373, -0.012793232621895712, -0.011766342614569002, 0.009223945188951936, -0.011070653599018678], [0.019293226371765664, -0.012198289838999237, -0.005960486711328476, 0.009193140408752997, -0.00939258698003581], [0.01381356643926054, -0.005332426408471385, 0.01064103475445682, 0.005021682964941059, -0.0011757352622623308], [0.014317684490572457, -0.0057024526376903886, 0.010260460565909273, 0.005285425183897221, -0.0015048415746731698], [0.01128498742382566, -0.0031177624406796894, 0.014122056566753718, 0.0035342451979943432, 0.001060173672549347], [0.019982667274173537, -0.0130501141763457, -0.007996546892670523, 0.009712468369478448, -0.010406795903404624], [0.0, 0.0, 0.0, 0.0, 0.0], [0.00016490900343190093, -7.464362025690212e-05, 7.888918314793562e-05, 6.498900272851137e-05, -3.195650048367825e-05], [0.0003935336903347068, -0.0002704814157119431, -0.00021654879381529692, 0.00019745721250353715, -0.0002269342264973073], [0.0005238022565533611, -0.00025277663102648873, 0.00018182472176069475, 0.00021362123968424377, -0.00012709404706985633], [0.0005899316482791812, -0.0002347232628805201, 0.000423791573574532, 0.00021766762911646094, -6.162071214998525e-05], [0.0008212671865343655, -0.00037007948856460787, 0.0004001318575705599, 0.0003228940085390966, -0.00015644729278681873], [-0.00023916402345466824, 0.00043681681349742353, 0.0013257466930677191, -0.0002449874230957877, 0.0005823900408064991], [5.1771354692202234e-05, 0.00030910924715335487, 0.0014823696620570692, -0.00013215859952812273, 0.0005325051611369953], [0.0005258211417044173, 4.061474296917005e-05, 0.001472790578188142, 7.939800577035568e-05, 0.0003526683368871141], [-0.0016384111225914181, 0.0012199464243471392, 0.0013128961187497492, -0.0008651321459061898, 0.0010979050113664784], [0.00017276866521906092, 0.00037833077072279886, 0.0020837223270480858, -0.000141357464275076, 0.0007113440697886261], [0.0001797278363763121, 0.00042282376245914895, 0.002295880317300463, -0.0001604721586051358, 0.0007877241285612325], [-0.0020420101896646307, 0.001597390543761097, 0.001973499683241228, -0.0011135373340122208, 0.0014938645131378225], [-0.0011572246148301012, 0.001294352364274377, 0.0028238933274881365, -0.0008095579904291299, 0.0014813913260166478], [0.00021454444012956718, 0.0005472887145509706, 0.002927167215355221, -0.0002110821448101154, 0.0010097504818153235], [-0.0028542241557541277, 0.0015288059908001917, -0.00032709429360515006, -0.0012334969222073118, 0.0009395704808987037], [0.000875603080068732, 0.00020448371948896392, 0.0030523555635321165, 6.943079444450587e-05, 0.0008105380757396563], [-0.001815695274309307, 0.001841748011630515, 0.003601840371995098, -0.0011834488180213988, 0.0020157993184402494], [-0.003221731363046281, 0.0015995489051231922, -0.0009219534345858223, -0.001334467568755763, 0.0008548111447199036], [-0.0036201934220873814, 0.0019426439532858745, -0.0003992596689177277, -0.001566156666830917, 0.001197528800485001], [-0.003789532244919916, 0.0027228200531897715, 0.002603436941944084, -0.0019556497846658317, 0.002378135955773915], [-0.0032874278603119886, 0.0027098603878220858, 0.0037830003885520984, -0.0018560949711676376, 0.002630480485535051], [-0.0038723389244989903, 0.0029586562812011492, 0.0034332545938367386, -0.002079282715974329, 0.0027177950697867942], [-0.004650323969078247, 0.0030189896838931952, 0.0017820188506552015, -0.0022520047657320305, 0.0023924722848873915], [-0.004270216827578927, 0.0032367636602359906, 0.003672532477536422, -0.0022810484122788187, 0.0029548046966400535], [-0.0037054503549692006, 0.001483201666117959, -0.0026230238860551485, -0.0013712723893630648, 0.000401518955316667], [-0.005251758557358536, 0.003421499233333827, 0.002065344477801396, -0.0025487925118739072, 0.002721567832739431], [-0.005454152874166169, 0.0035524472415926146, 0.0021409461566665624, -0.0026466009011562627, 0.0028249662929540347], [-0.005373058302702962, 0.002912104320619943, -0.00046612320051765173, -0.0023377109924606946, 0.0018244292543111878], [-0.002853374565761672, 0.0005462906853166749, -0.0046315685218307244, -0.0007825884361870344, -0.0006629227462493676], [-0.0017423561719205414, -0.0003134921302077051, -0.005664431280596121, -0.00018101300864272645, -0.0014604894658680893], [-0.006021724025828144, 0.0033233996286124506, -0.0002605884654027949, -0.0026473348803830415, 0.0021421325872740295], [-0.003528609011441444, 0.0008952392838056495, -0.004764734317707699, -0.0010685627370565598, -0.0004614084900311316], [-0.0054573213915952695, 0.002477963707293337, -0.0025765377735983857, -0.002154249117509203, 0.0010702399637316695], [0.0013604239743212523, -0.002478275159598542, -0.007512917295577434, 0.0013905913679035323, -0.0033022606498524032], [0.0002765601069380773, -0.0018803094511425217, -0.007560788077599078, 0.0009141927115353, -0.002917053190779232], [-0.003643151875678183, 0.0007550435273318607, -0.005661288357509269, -0.0010255995840267288, -0.0007525249478554664], [-0.002974092695867346, 0.00020154924816428416, -0.0064398940695148685, -0.0006469368181903799, -0.0012911153553311655], [-0.004774736518145088, 0.0015290520570863354, -0.005055033674583178, -0.0015916584537394628, -0.00010609952404943635], [-0.0012561893691365128, -0.0010939993026497863, -0.007888430361674937, 0.0002676994773356009, -0.002469065776729126], [-0.001096132751034238, -0.0012491730208083632, -0.008174469508665226, 0.00036872875066385684, -0.0026350486926164656], [-0.00047930854510102347, -0.0016983650130534306, -0.008624518883533213, 0.000689802221298616, -0.0030319233319003806], [-0.00017327991190858595, -0.001941508173998107, -0.008936708592817602, 0.0008584035090160318, -0.0032619182528779082], [0.006583687523444676, -0.0054981437021698705, -0.007887997366108587, 0.003749814699409781, -0.0053840960224715165], [0.0010578556166395585, -0.0027945944164968115, -0.00964444569871412, 0.0014793006471913357, -0.003983133809250327], [0.002111788005636571, -0.0034583714058054726, -0.009958741734410017, 0.0019803114057218023, -0.004492014368407869], [-0.001777620121239357, -0.001092628335565432, -0.009166378178371815, 0.00016985813879182585, -0.0027508438126602978], [0.00859163174538254, -0.0063756356566185, -0.006789916901989017, 0.004526731972333625, -0.005722014154175918], [-0.0028727582758486495, -0.000442230565034923, -0.009012189972500716, -0.00033269676678111923, -0.0022862353093924996], [0.009770718761946667, -0.005653665656322137, -0.0007220220853064862, 0.004415334470146706, -0.0039019038502345754], [0.0098036129350315, -0.00549316945756706, 6.246342041503471e-05, 0.0043478359658995725, -0.0036221402848019423], [0.010337323759711586, -0.0062965297301121725, -0.0021446343691860098, 0.0048158966228489695, -0.004642104570150797], [0.009946477195499029, -0.005366307747485509, 0.0009703094418474045, 0.004316270163175241, -0.003337351884821587], [0.00976803171859847, -0.00719902113112653, -0.007502248803927353, 0.005123798678408366, -0.006424586999349567], [0.010946799472365392, -0.0070225036764492875, -0.0038259705876997974, 0.005262579777955464, -0.005494546574429083], [0.01115770952118006, -0.007125072938510068, -0.003756213488267944, 0.005348956426441695, -0.005547007243515258], [0.009726639101407362, -0.007502563163996682, -0.008934659899341987, 0.005255338146965379, -0.006942356223476773], [0.011351977455439208, -0.006551074175509193, -0.0007618989707780197, 0.005121840242227763, -0.004504724078658805], [0.011319815673659177, -0.007867531769664269, -0.006611397101864365, 0.005719797518439978, -0.006670018872136917], [0.011946082737353012, -0.007235546823365215, -0.002299174215181407, 0.005546618211671452, -0.0052978294841447855], [0.01211686386753526, -0.007899838340580332, -0.004790373417131884, 0.005883215672059795, -0.006288587433628389], [0.01187354297804266, -0.00657414191155397, 0.0004212793097647685, 0.0052296605674206405, -0.004258270522350691], [0.006688981194741318, -0.0016195491142414636, 0.009371951058662774, 0.0019900560652330083, 0.0010011127613395725], [0.012789683165391917, -0.008120601374949108, -0.004101290979844501, 0.006109931814384604, -0.0062822847471993475], [0.004921040506822741, -0.000186392937409716, 0.011300439167141864, 0.0010029606411936624, 0.0023763130138880133], [0.001789238695830117, 0.0020246244628634997, 0.01328011775285568, -0.000595265373128238, 0.004277707116484078], [0.009285040877668578, -0.0034836276476726538, 0.007593779738477148, 0.0033292358856703576, -0.0006260667576339801], [-0.00712368982752922, 0.00724323730119511, 0.014207413637864595, -0.004651088782424037, 0.007937054364860295], [-0.0031761065339822457, 0.005217431308897841, 0.0150483130275722, -0.002985743159736588, 0.0067821720706176996], [0.005072844633937559, -3.3145630593022334e-05, 0.012345951961421008, 0.00096095657107295, 0.0027090184367819527], [0.007283691409819854, -0.0016212113830308056, 0.010829063417111935, 0.002101692822072979, 0.0013223296605468463], [0.005301978323896126, -9.318630344114748e-05, 0.0126469939993192, 0.0010312198165358883, 0.0027358685105152293], [-0.010777552200151851, 0.009118272409675023, 0.013428905008683883, -0.0061925054674219345, 0.009005941632587585], [-0.007040905040766878, 0.0075408234144625635, 0.01571564167932, -0.004772178940040843, 0.008467652246807799], [0.002808335970035903, 0.0017921717904994386, 0.014770627674612393, -0.00029862839750306047, 0.004453550280907502], [-0.0056855351852895366, 0.006953389398468059, 0.01647822406693723, -0.004249993999821677, 0.00824751189454585], [-0.008481500799585371, 0.00840576539810377, 0.01595957569967579, -0.005437565646534832, 0.009094120692707474], [-0.007692213830991252, 0.008084888931847478, 0.016496627274737986, -0.0051432067833212984, 0.009000528144542485], [-0.009874328729294063, 0.00915494498540558, 0.01581372159422397, -0.006040938312685613, 0.009557743228584076], [-0.0138685382359355, 0.010616530399805398, 0.012384916478821286, -0.007456128280072242, 0.009766713304673899], [-0.014424269973631273, 0.010822793143961265, 0.011920589549570995, -0.007654363008895406, 0.009800529322391203], [-0.016334227984512624, 0.009736654685296246, 0.002456792576785222, -0.007512154512345985, 0.006988191357534063], [-0.015080582527079582, 0.007732404220111717, -0.0032413057396211437, -0.006358939337040236, 0.004401132939899312], [-0.016805892516502084, 0.010180186995882174, 0.0032394716786951646, -0.00780356879523966, 0.007454898412330258], [-0.01592316510846262, 0.008485213120905607, -0.002016342486314152, -0.006861392633185241, 0.0051703862152606035], [-0.014245952549514712, 0.01125675283366213, 0.014261807960334449, -0.007820206963057184, 0.010605653286893047], [-0.010889334932232087, 0.003528488037554856, -0.011347517934031052, -0.0036489113827708943, -0.00017457687880016205], [-0.016992705088898427, 0.00946057967336493, -0.00037471715756254124, -0.007508261610602843, 0.006179118323939753], [-0.015974091573973347, 0.008063046706794653, -0.003992184482666961, -0.006677209103167814, 0.004453890524330068], [-0.013384299676632369, 0.011293681605412498, 0.016545385184257376, -0.007676507513205339, 0.011135230041919957], [-0.016414551610804583, 0.01220367348963448, 0.01307245559305363, -0.008658927661756553, 0.010969337046424719], [-0.008675099518519205, 0.0015036435274793619, -0.01477055332713537, -0.002307161696412119, -0.002272016578299008], [-0.01279762594568107, 0.004732044485247814, -0.010771007424789762, -0.0045568390385872575, 0.0007495890492336733], [-0.01786850112967408, 0.009701757826659585, -0.0014741204061208236, -0.007782185378522503, 0.006095564446173344], [0.0008462744359407516, -0.00511368958246002, -0.020330507586593535, 0.0025037896794220605, -0.007881940493814557], [-0.012848592172495187, 0.004576598830764776, -0.011577855496985695, -0.004495026824261595, 0.0004682218055461613], [0.010280566864023847, -0.010413441310509109, -0.020329659434592223, 0.006694037220100841, -0.011389686042755632], [0.009363617575431584, -0.010023912766125622, -0.02088014712107504, 0.006344382148481282, -0.011253624431829498], [-0.013269354810518259, 0.0047337395099689, -0.011925150241151466, -0.004645562928013512, 0.0004954115070120957], [0.005787004399059905, -0.008248537416739095, -0.021905268587307226, 0.004863088398353429, -0.01030525389694261]]}